-3,2979121253562404E-05
-5,137765613997675E-06
1,73451803720641E-05
0,00017288708678526145
-0,00015692110439296684
-0,00018398515053654832
-2,5970514559086736E-05
-1,2900299434860184E-05
5,9888145252518265E-05
-8,495970525939133E-05
0,00012932677457512737
-8,743966231719525E-06
7,926532151581875E-05
-0,00010137204817854852
0,00015707142403822256
9,465497067522636E-05
5,745556228136038E-05
-0,00011714976450523418
0,00012565970806026992
-1,1226807520502302E-05
-7,90158800263372E-05
-0,00020259133467705269
-0,00016193303158789157
-0,00014058099795221537
-9,009798496247328E-05
-3,96391124500248E-05
1,4242870511654314E-05
6,621575041507412E-05
-3,044407929929622E-05
2,0323621748114323E-05
-2,2743734097295815E-05
0,00017686973182899166
-1,1510652577764975E-05
5,7275129634348066E-05
0,00013805258101423973
-0,0001675165751412123
7,224804236558058E-05
0,00016259861631991114
0,0001307966730673167
6,0025865964649904E-05
6,289276148680543E-06
2,220007391663469E-05
-2,1907399816471748E-05
-0,00016763184696753228
-0,00016654939079973323
-0,00016905255454750435
-3,665017184697572E-05
0,00017481997333453924
-0,0001270206935004436
0,00017017100644754258
8,943878333724055E-05
-4,944722653716045E-06
1,946072167077156E-05
7,082109706750154E-05
9,677663203050823E-05
0,00014857298253281043
8,666236507840188E-05
-0,00013467832712223124
3,748950791845347E-05
-0,00012400288119761136
-6,160073059435885E-06
-5,3828129340009616E-05
-0,00012359321873881866
-0,0001275209837349294
-8,91049904877788E-05
9,124010793410279E-05
-0,00011303758433967831
-3,65356524484679E-05
4,1339816478682426E-05
8,472852447481918E-05
-7,536327210702421E-05
9,391185394875618E-05
0,00013285795176282806
-0,00014954381164918653
-7,617458947414989E-05
5,022678218452588E-05
-0,00010157540993778268
-7,163404700656163E-05
-2,54401007009385E-05
0,00010470453811142363
8,178161366408166E-05
-5,503832734977935E-06
8,685601063127988E-05
-8,508187463169648E-05
-0,00011921895708806757
-0,00010293562188891886
-8,309078573595028E-05
-0,0001281613529442836
0,00012757270740144287
-9,461427242276168E-05
-4,2321131476797857E-05
-0,0001574453545386906
-6,160621359742575E-05
-0,00013503312797680017
0,00010951454738121781
-8,84387485337676E-05
9,711189480465192E-05
-0,0001106064362279898
-0,00013348413805770845
4,8740157533340184E-05
-1,7242871919210347E-05
-0,00015091252994517973
2,367237713455406E-05
5,0047001488690326E-05
0,00013983837007220653
0,0001347759060294818
-4,847961042531634E-05
-2,63555024632131E-05
6,273058047537941E-05
0,00012800676700204004
-2,3370927054765887E-06
-9,969132283330744E-05
-1,2837126342245814E-06
9,674131966532251E-06
-3,590625900732501E-05
-1,3198178693074697E-05
0,0001936529674575517
-9,991843249965511E-05
-7,624292976064979E-06
-4,695883740570906E-05
1,57310727734957E-05
-1,0925669832616287E-05
9,037984945467053E-05
3,718184456041483E-05
0,00010572104587549787
-5,3318669789323275E-05
-7,868027982321122E-05
-0,00015069848900648087
0,00015971122131505072
-7,650576421444147E-05
-8,129955253749846E-05
-8,322750120185973E-05
9,020243202525119E-05
-4,524949129607552E-06
-5,9714927886802845E-05
-0,00014193026295982806
1,3411648642583756E-05
0,0001230839602585509
3,871445549553342E-06
-5,005348173208288E-05
0,0001475318370597207
0,00016258317959423846
6,385512815921426E-05
1,2442885767557172E-05
8,820641123259236E-05
-0,0001291908344603366
0,00013465727540296724
9,974534487908443E-05
0,0001327972002745005
-0,0001482850151733318
-1,7851309213843432E-07
-1,7484895688700855E-05
0,000123017845843023
-0,00010197335224466824
-0,00010070954206365438
-0,00015493524479194033
0,00011920495642609309
3,885809302350954E-05
4,703935790383561E-05
-6,3834143644589866E-06
0,00010424842421529823
3,869858412200605E-05
-4,773069158660797E-05
6,5587309926517785E-06
-1,8714337717339524E-05
-0,00019843484237349083
-9,58753468853505E-05
-4,440573024547395E-05
-9,021511438513654E-05
-0,00013980142718565366
-0,00016127505590792646
0,00010294584409251631
-0,00014853954577599183
1,5485103774377355E-05
0,00017297617467016218
2,112019137841196E-05
0,00012393418329685856
9,17500327715583E-05
-3,243016314419302E-05
3,861173212382094E-05
-0,00012092268128673032
-2,6592483348023683E-05
9,26106964299399E-05
-3,063415393432959E-05
0,00011670264342468154
-0,0001373993370226138
-1,3831620092964805E-05
0,00011408534537245682
-5,9346802106236313E-05
-0,0001127006107257465
-0,00011889862677844808
0,0001467035998653916
-6,13248234792764E-05
-4,4829564450271E-05
7,48180317195412E-05
0,000108440894900472
-0,0001705778601641569
9,091554222072124E-05
0,0001709409368865211
6,006128878365787E-05
-0,00013160364997183253
5,3580915222903674E-05
7,823384549722206E-05
0,00014018821182938223
-0,00011074411621598475
-1,8255296084388856E-05
-5,070220610113438E-05
0,00011738260868792367
-6,429026929292299E-05
1,5904518626528884E-05
-0,00015127995659264536
-0,0001472813860041233
-6,221611802985003E-05
5,411617719564044E-05
0,0001747308390612317
-3,088840592181202E-05
0,00015431188851806966
0,00014112796832777748
3,901823276774532E-05
9,259550053904538E-06
-0,00010802161615748848
0,0001798533212170999
7,271906686146349E-05
-9,699242323257416E-05
-7,810336777475987E-05
2,909175527500941E-05
-0,00010787656584891817
-1,0369479734513506E-05
-0,00014390992222366254
6,7482861052163E-05
3,484264598037018E-05
-0,00011416983110490794
0,00016594462329352482
0,0001409069756491044
0,0001415039221499963
-3,3720658364589404E-05
1,2027122768348142E-05
0,00015426079552100265
-4,936729961702406E-05
0,0001381793971959062
0,00010882532069808361
0,00012962975115313468
-9,319376870739242E-05
5,092994063706311E-05
5,955461250779206E-05
9,758074030220507E-06
6,0334664033992305E-05
-7,910739522980742E-05
9,520813568752922E-05
-4,9142658620517755E-05
0,00013162855133208774
0,00010489298947754897
2,0055140636174266E-05
-0,00010752859619985251
6,801013928732524E-05
-0,00010711526961347856
5,8581213126156025E-06
0,00010724148462241453
-9,201388827863198E-05
1,5351987174353132E-05
8,357784111373448E-05
4,47882148137318E-05
0,00010258297050021122
-0,00010620009077571482
-3,423093292202933E-05
4,013191692286993E-05
-5,5338977576674386E-05
0,0001153946263596606
0,00010202425845095677
-0,00012668516091475987
0,00011309193587149626
-4,433436276268032E-05
9,258092155238554E-06
8,672216645612257E-05
3,805557148785263E-05
0,0001419314074748266
-0,00010225651302528208
-7,938972096183363E-05
0,00010996181432481677
0,000140903263559285
-3,5262175457240854E-05
6,625169566119632E-06
6,733857459105521E-05
-2,988642009290904E-05
-7,261944855029623E-05
-8,939511915263278E-05
5,5984830016657494E-05
-0,00010365388865091532
0,00014313156277320286
0,0001654835914476657
-4,5352916113584524E-05
-0,00011440460266458932
2,690679879068604E-05
0,00010974227360585262
3,171239651510961E-05
3,889840832005871E-05
0,00012845518973052773
0,00015854591975756398
-7,175838484281351E-05
6,543017767024468E-05
6,931945217569857E-05
-0,00014234235043279194
9,407769048463769E-05
0,00012717183473951113
-0,0001528329488836456
-0,00011538168028834523
-0,0001083781976574942
0,00013119414538850595
-0,0001606604940445519
-5,977761946756286E-05
0,0001375930085029047
0,0001653711411779465
0,00016186417671422933
-0,00012924830876369925
-7,716030979951888E-05
5,545270666089458E-05
-3,052621040352608E-05
-4,779307358189815E-05
-0,00013971274458391352
6,899209211021075E-05
1,859158670474717E-05
-1,5602828034649044E-05
-4,7044505736658436E-05
0,00017641635782873148
-0,00014393646054474107
-0,00011073715726274736
-9,93873869975236E-05
0,00013661312161896243
-0,00011326860962905503
-1,0264232954061398E-05
9,695349208645453E-05
-4,9299214502053764E-05
3,916902935208816E-05
-1,0984169622678859E-05
-9,511684927915808E-05
8,828937435270842E-06
6,356591889976123E-05
9,925947940815528E-05
-7,114694866053609E-05
-6,478430684925475E-05
6,575227589802517E-05
0,00011738158906631823
5,807406149467671E-05
-3,656009542294438E-05
-0,00013687954602027653
9,653761930522874E-05
-1,889870995084926E-05
-6,818835693992201E-05
-2,4042272228817736E-05
-0,00014322770210698377
-6,63941326933389E-05
0,00016117857945186433
-8,011343005940906E-05
-0,00012179345110632623
0,000101990860300303
0,00011975762200787087
-0,00011489755121624383
-5,864370087011046E-05
-0,00010906351314445942
8,89355480992618E-05
0,00012850476745845824
0,00013234244235664565
-0,000161478650188006
-0,00011582624534251436
2,1738537737788818E-05
-7,43288794974525E-05
0,00018410603181635024
-3,438171017465505E-05
-7,773889854050274E-05
0,00011301899389535906
0,0001358811258619275
-0,00011664493867467029
0,0001579320322655728
5,078397030917395E-05
9,032317418478016E-05
-0,00013530658787226662
-0,00014202675973010005
0,0001589275213411528
-0,00011271478863778757
-3,5001128926908916E-05
-1,5166854156199984E-06
-3,6565912703251755E-05
-0,0001624532357656368
0,0001491620977719554
2,5006333986136738E-05
1,6477047106489995E-05
-3,029796695294588E-05
-0,00014592787437741565
-0,00011179315369755409
0,00012632688408711765
-7,597279568045476E-05
-0,00013745336136246805
-1,9875166622259506E-05
4,768520264683266E-05
0,00015921333905889986
0,0001545176208922709
0,00013513405354012044
5,5053599950627646E-05
-0,00014192885753293573
0,00010592594978341919
-4,961702639280604E-05
0,00020807754500851776
0,00010438878269438488
-0,00015574737535115285
0,0001392890159885605
0,00011023895016581884
2,9474964895784094E-05
2,5619424933088463E-06
-0,0001049855209631216
-0,00016266857132281868
0,0001377453212176989
4,576299998320933E-05
0,00016907169223077782
-0,00010017946035286499
0,0001594611580244364
-0,0001123315390481359
6,229301849607945E-05
2,916312908008641E-05
-6,407555767191422E-05
4,427021604360091E-06
-8,088407087384483E-05
0,00010621078597984908
-0,00010662762140642758
5,208200816005356E-06
-5,0803954763978423E-05
0,0001562639145879744
-7,756241023909439E-05
-1,709116218512472E-05
-0,00010735006787990513
-3,480873467437926E-06
-8,215220938956306E-05
-0,0001729823413822686
-0,000131553277644084
2,9456877230051075E-05
0,00011655689622195205
0,00014621184642580926
8,689905237401754E-05
-7,576006748234425E-05
-0,00013564674417835529
2,7647907657684803E-05
-0,0001573489190956408
-1,4101208152527859E-05
-0,00013821398584774113
0,0001257702331437385
0,00011268921243025205
5,121229921564688E-05
-1,3097675304679259E-05
-0,00014602862379593763
-0,000148942641271107
0,00016665494724411986
0,00015697890668452677
8,891813982248067E-05
-4,183529731226069E-05
-0,00010881842658846296
-5,607642005655204E-05
2,644006310958488E-05
-0,0001522890909926496
2,3547495588396815E-05
-2,8797465699138515E-05
-0,00014197244962356394
-4,5018759060810336E-05
-6,177259313846299E-05
-0,00017163734188252298
9,033558443033566E-05
0,00015813221417184149
0,0001247864646261494
-0,00015601088865595654
-3,778194840435689E-05
4,036056037735776E-05
-8,081684604019455E-05
0,0001668765431454189
0,00018043664493950674
-3,9630463394540884E-05
0,00010271904679243785
-7,085138954729042E-06
0,00016053951745087654
0,00012281964898747084
-0,00012883434764757211
-0,0001231712758206181
0,00017231282502660176
6,828130106020553E-05
0,00010719485603988635
0,00011026687250252466
1,649271726509117E-05
0,00016604118620555623
0,00012840506938366762
-5,9441117371899515E-05
-6,742356271644411E-05
-0,0001551794370939616
-0,00014380551160993944
-0,00015499317124688259
-0,00018676149208416375
-5,767115171077408E-05
-6,744731081828202E-05
7,865440991706235E-05
-0,00012792433179779892
2,8678035207920596E-05
3,6088324401357384E-05
-0,00010092684146829849
-8,080902167336573E-05
-9,52806424341945E-05
5,7354667844698156E-05
-0,00013686377502907613
-1,5371586068892475E-05
-3,7610277410203005E-05
3,489068248570855E-05
-4,183768831097958E-05
-7,060869939791698E-05
0,00011468247867812059
-4,722247344457246E-05
4,011390485029494E-05
1,699104913717214E-05
-0,00014986641520544928
-0,00012429486410726965
-5,567784382062187E-05
0,00010060422917057558
0,00015916641637364338
9,640860234602664E-05
2,4119815247747556E-05
7,07919506377398E-05
-3,390570165375733E-05
6,57446750212851E-05
-9,832993840762537E-05
-0,00015895970247645398
-0,00016855095632889802
0,00011475452504388584
0,0001225034989688992
6,544849076265033E-05
0,0001468084883006513
9,485054107564105E-05
-4,7426622435449255E-05
-6,5431000334757815E-06
0,0001395035322088025
0,00012929664231461517
-7,514246036605057E-05
-0,0001835620166105257
3,337713710805439E-05
-5,8774623887459615E-05
-0,00014022717786848303
0,0001404923190338603
2,759713236725415E-05
-6,073714646185326E-05
-6,858890902529422E-06
-0,00012458944331896298
-4,725153434063987E-05
-5,826566346444553E-05
1,7288825819993905E-05
0,00014127971580790702
0,00015889353381497937
-2,4711131452986396E-05
-7,098119913167029E-05
7,339650266697185E-05
-0,00010097399857433262
0,000150115486502002
0,00011009754726301389
0,00010393601380133101
0,0001498154867150423
-7,508019519625149E-07
-0,0001177901812417631
-6,966921585193061E-05
0,00011420330496031764
0,0001461214822157409
7,036152140547947E-05
-0,00016763765888689634
-8,367618122989919E-05
-4,095615209430161E-05
-0,0001305965169009264
6,312372499990915E-05
0,00012717241196486074
0,00013799871707882906
-0,00011293582581432616
0,00012511484413586536
2,6650012917895846E-05
-6,0445428300641584E-05
-8,819586426304487E-05
-6,762119759467999E-05
1,6608424770445442E-05
-1,6441585014882668E-05
-3,9302311870252534E-05
0,00015434013269720868
-0,00012432355713153426
4,505403343622554E-05
0,0001634627019465538
4,183722093866348E-05
-9,769688519947989E-05
-0,00010219599002678346
3,7284771225295538E-06
-0,00012822264481067745
-1,3042730432714511E-05
0,00011813868391640715
0,00016881240000034685
-3,0246735187068692E-05
-0,00013021018647838437
0,00013297235260993366
4,0899550324866734E-05
-0,0001257459475807157
0,00016382624496878815
-5,496332828661174E-05
5,4515633092324674E-05
7,799281876517452E-05
-0,00012132748658032283
6,388203359838889E-05
4,048227604109755E-05
2,733599011025319E-05
-3,665277433385408E-05
-8,512866468732832E-06
-0,00011809866208642016
-0,00010541899684834276
-0,0001424621881382594
-0,00010546504302853384
8,746662292077204E-05
0,00010858843857438082
0,0001696113342488634
-5,867990084665654E-05
7,207415868313235E-05
0,00010959913099367419
8,858077910491281E-05
8,105057886109109E-05
0,0001445363795146611
0,0001602725961999048
6,350370827300575E-05
0,0001180228430477981
5,647066229756123E-05
7,751832567354176E-05
-0,00011186444502239217
-0,00011476269710270582
-1,9486386388389772E-05
7,130360072610827E-05
-9,224177602623074E-05
-0,0001473758927070395
0,00013133819562885802
-5,8038209817587325E-05
-0,00016100901082567447
-0,00013120757719226116
-8,029659135863821E-05
0,00015962537410758588
0,00012974947146066876
0,0001071469873416886
5,0826994745091885E-05
-7,847927120146534E-05
-0,00011215801685682277
-5,524426077087387E-05
9,86170950766006E-05
0,00012878793190763412
-0,00010435690007511977
0,00012540817593298802
0,00013195545922348138
0,00010534781195297994
9,892494849840664E-05
4,8744273059024894E-05
-0,00013232524406948444
-8,982977650181639E-05
0,00016796179511415345
-6,444894325731418E-05
0,00017127656337722475
0,00011506696146369039
8,725993290334835E-05
5,7249726738539275E-05
-3,815622304791577E-05
-0,00010486420171364078
0,0001298027272729924
7,005891804344179E-05
-0,00010842152074512572
-4,283843722999393E-05
3,2799621951962956E-05
-0,0001525804329569117
-7,849771890975673E-05
1,735497101134365E-05
-5,6174320243493224E-05
-1,1852450772039116E-06
-6,093302990194076E-05
-0,000129179450610081
2,3854752871575553E-05
0,0001458304933450488
-3,491356098879428E-05
-5,2654959563291924E-05
7,8527429239899E-05
1,2110265656841034E-05
-1,7799288938583824E-05
8,670010762409022E-05
0,00012059071211318023
-7,662244540802684E-05
-0,00014937228418844886
-0,00011383351793602593
6,91732436758108E-05
0,00015781624647974557
0,00015777691573582277
-0,0001545984379840717
-0,0001618724649689853
-0,00010031464389856285
0,00013261287297756664
1,7667218190271442E-05
-1,8954246118660383E-05
0,00017430825202588822
0,00011086192806053456
2,072578354720514E-05
-0,00014293406345136013
-0,00011926399851331928
0,00015961024143781554
-9,949572647123802E-05
-5,297704536668388E-05
8,950701817200784E-05
0,00016886892837222404
-1,5435325619604136E-05
6,624669933334703E-05
-8,938139349957309E-05
9,355350265226178E-05
-2,56058110109598E-05
0,00016123778017045247
7,163772695803361E-05
0,0001112474042530195
5,8298365787935196E-05
3,038667792510216E-05
-9,768956493874068E-05
0,00017546475782442142
-4,45911339710187E-05
4,2658777749831176E-05
-6,55075343395696E-05
-0,00011549235483982943
-8,780716668852502E-05
-0,00013912203581166463
-6,220309092381051E-05
-0,00014174911766968613
0,00012457163736680305
-4,373488565915707E-06
0,00011107669212686833
-2,2982972299912486E-05
-0,00016603972596937458
0,00013265166717818096
7,345270936441737E-05
-0,00010881249065691333
6,66821732372753E-05
4,894897532940079E-05
9,085674691418474E-05
-0,00010615198608895681
-7,52824319269302E-05
0,0001198468134890954
9,567905746669266E-05
-0,00016497168181970188
-3,616803052480608E-05
-5,641400340285907E-05
5,380734294190204E-05
-4,439010908525007E-05
4,29513003377922E-05
4,77917152015446E-05
-0,00012090173445102157
0,000131841449958145
7,18746236761808E-05
8,618785259395279E-05
-6,3486691600565266E-06
-0,00010017183907662443
0,0001501178183715898
-0,00016770194660630002
-0,00010647045232834393
2,0223936443056405E-05
0,00013750830458040178
-4,6965050493411124E-05
3,95624767280466E-05
-0,0001679251701470473
-6,839524020379932E-06
5,3446237263254226E-05
5,551448693097837E-05
-2,942965495414173E-06
2,919518628856199E-05
-0,00010392162014568492
3,499084398579899E-05
4,909486906812935E-05
-2,4756156760827116E-05
0,00010248481543322828
6,70949329745592E-05
-5,2111161277238854E-05
8,364841159681517E-05
0,00016019329606451073
3,2666823796065985E-05
-0,00012284254673445568
5,4077928254289356E-05
-5,283459749728466E-05
3,170503977142903E-05
0,00015870550431847414
-8,779751713073012E-05
6,564405675573539E-05
-0,00016983552101663643
0,0001283396923028411
0,00016531399071053
-6,723988644986417E-06
9,351462727958559E-05
-0,0001102836654060575
-2,9626790498339246E-05
7,892116073269396E-05
-3,8097215605728324E-05
0,00011162421273794919
-1,5990228522005888E-05
-3,3231982141046544E-05
0,00013211766652402996
-0,0001738211964282329
0,00014793061812930106
-0,0001579243377459709
-3,150835641665166E-05
9,095211293555795E-05
-1,1532227054831804E-05
-2,267862457657496E-05
3,533411238423901E-05
5,500469349487407E-05
-0,00011965193601556808
0,00013213214413218126
-0,00010135681615164557
2,4749238507373285E-05
0,00013975376245346186
3,3497787844590274E-05
-0,00015007496644848167
0,0001178729926484659
4,5038496039725264E-05
0,0001561457875601748
-4,460488524810049E-06
4,357616540569797E-05
-6,870865034098622E-05
0,00014881699161863372
-0,00010218599337172387
6,25347413100045E-05
-2,792502292332923E-05
-5,990111796334331E-05
0,00011222421065815459
5,4202419383996505E-05
-4,89449046429168E-07
-0,00013927691975069065
-4,483167753399727E-05
3,084771503222347E-05
5,494730062035162E-05
-0,00012020728701613121
-0,0001301844998368453
0,0001398676960259081
-7,001350280876646E-05
-0,00015136468931668115
-0,00010146649748951937
1,5142890431518416E-05
-0,00012704550185205517
-0,0001123994869406619
0,00010972900348484537
-2,7329003343722057E-05
0,00011948279439389433
-6,28172119841234E-05
-5,7149948511161864E-05
0,00016276551266796864
0,00012158223444522063
-3,5768975699078444E-05
-0,0001166356927280589
0,00010768619687342744
0,0001594602610762395
9,133553748873206E-05
-7,506722090292143E-05
-8,763889546582184E-05
5,5134464280172024E-05
-0,00016257226622102248
3,129010091519985E-05
0,00017119046934329637
9,252751740974656E-05
-3,864630797169249E-05
6,589910344246809E-05
-9,802034588983031E-05
-8,5901969393781E-05
-8,142710487541127E-05
0,0001792305827426125
8,523566189114714E-05
-0,00013495375113968763
0,0001362899727103429
5,391891659446216E-05
-4,6566291111312264E-06
4,5417834384194965E-05
0,00017609244928845833
-4,155931874902451E-06
-1,212006705791341E-05
-4,149225312562284E-05
-0,00017102376594021088
-0,0001025440897447332
1,3405058985904916E-06
-1,7972848251197314E-05
-0,00011815497435716533
0,00013813505115790469
9,963306188748015E-05
4,713821294721708E-05
-4,542459535454664E-05
-1,1971671935173756E-05
-3,078004054228331E-05
8,409506189801895E-05
0,00010193719437926133
0,00016132013321213016
-1,1076262652416936E-05
-0,00018087586804640973
-0,00012908082338903133
7,694180055794405E-05
-5,5952471295810404E-06
8,174892114599638E-05
-7,266665320247137E-05
7,798960511339608E-05
-7,720059485367259E-05
3,472144636259812E-05
-8,75226164894511E-05
-0,00015404263359732406
-0,00010646514671331984
-5,142851050658746E-05
-1,6990842701600028E-05
1,266505751502844E-05
-0,0001538763111024016
0,0001646730456674791
-0,00014125713786620868
-8,765960431757455E-05
0,00010880232304409249
-0,00013883370313776694
0,0001292267408881028
8,413708710231313E-05
-0,0001048401786932968
5,7806876859390424E-05
-4,475083041733533E-05
0,00013508682036212632
8,786957365761073E-05
-0,0001649903749267578
-7,201021243594272E-05
-4,936530230081658E-05
-0,00013116974024153004
-0,00013206793027971194
-6,958194794511025E-05
7,313486534107777E-05
-8,738124482474302E-05
-7,771695467291338E-05
3,1146697305637544E-05
5,66418858331084E-05
0,00010709404617981022
3,5102978798015156E-05
-0,00016337858829125083
-0,0001476188914950513
-0,00014696736947653662
8,461261414418387E-06
3,638874797514015E-05
-0,00016043253799721244
-4,4559120469458734E-05
-0,00010137656348713027
0,00010707451821497798
0,00011592702468232882
8,916987174223485E-05
0,00010517002352103231
-0,00015374605400899797
-0,0001658172878260197
2,4344126357295544E-05
-8,610586830398231E-05
7,68227926786362E-05
-0,00017093304907607796
4,153200959651038E-05
-0,00013963268563953752
-7,796420557606491E-05
0,00010416026793952886
-5,690677312954328E-05
0,00014271782259650474
-0,0001699418739353079
5,328432836294184E-05
-2,95710334681552E-05
4,857034195697745E-05
0,00010037060974009089
0,0001596974961741273
-0,0001401776086663512
8,743447295516936E-05
0,00013167718167086254
-0,0002184528479069764
7,370769243202955E-05
0,00010972930244425255
8,603294271355362E-05
-0,00012567740440027814
7,400157503874175E-05
-0,00010552320926236354
-4,8721129673023265E-05
0,0001213109175386209
-2,6174029997345056E-05
5,285270508729319E-05
0,0001611308650640975
-0,000127876685026358
-0,00012439408168653403
0,00012235302810082547
2,661987188932648E-05
-0,00012983574379569134
6,6475210130278794E-06
1,822165479123462E-05
0,00011962055610152955
-0,00017709642169731136
-4,13824081487613E-05
0,00013824375388827562
-0,00014691675099923096
-5,679935687062817E-05
1,4061915145372081E-05
1,8809395460294566E-05
0,0001413987908848208
0,0001101132963700976
0,00011589993030880191
-0,00012478690081291126
9,530190284743461E-06
-0,00015329036468561145
3,380647116686241E-05
4,6911201380874255E-05
-0,00010765301360233824
6,949755770087748E-05
0,00013909538133120283
-0,0001235821010377131
6,516823225595757E-05
-0,000168447612436646
-0,00012918590330644316
0,00015845183026521294
-6,173898749630592E-05
7,876246225864734E-05
-5,7139581164933585E-06
0,00015325294219379628
-0,00013415047397787941
8,756546772627653E-05
-0,00010926975366962976
-0,00015343411294868088
-1,1326235375202378E-05
-0,00016143943726741445
6,244770955597453E-05
-0,0001471575675935081
1,4252098556836156E-05
0,00015229051255353395
0,00014364345335166523
-9,166413263472161E-05
-1,4775216490230453E-05
-5,3439148883856566E-05
8,271099313375404E-05
0,0001603681985528147
0,0001338768514323396
-0,0001405671840634185
3,813331439458291E-05
-0,00015383287828611475
5,947636564637199E-05
-9,523750894047262E-06
9,279681169685556E-05
1,907442499043298E-06
-5,164949156184321E-05
3,460224043751272E-05
0,00011862374549238208
0,0001346058245585754
-0,00010816643599610033
-0,00010614741673739901
1,0761704126652959E-05
5,477655536866544E-05
-5,781840030735136E-05
-6,152516689802333E-05
-0,0001145958040039543
-0,00015930316034446908
2,612834532532703E-06
0,00018923119702327014
-0,00015918580316603328
-7,905803182144793E-05
6,337138828950497E-06
-3,8133596650730764E-05
0,00017099984058713724
2,4961694610617082E-05
-6,294129155192513E-05
0,0001561135198091749
-7,362685735512617E-05
0,000169659420935086
-9,920739368457885E-05
8,002262847504941E-05
3,6359489982731515E-05
-0,00012499849160825652
-0,00015167548044663683
-0,0001824075158484444
-8,666336148658313E-05
0,00011673625451425376
-1,559105792494582E-05
-5,541543698122023E-05
-1,665873749596124E-05
0,00013972115422319738
0,00015757914312056727
8,486630374721812E-05
-7,521119680086865E-05
0,00010917732793482342
-9,140364117346699E-05
-3,4962886879216634E-05
-0,00010162514198487143
-7,57921667423161E-05
2,7390615645118967E-05
-5,796453977791288E-05
0,0001036830554905965
-0,00016887257493240188
1,6559616450271382E-05
-0,000144666112151717
-4,6551286016832765E-05
-0,0001019923565729501
2,9090707575677894E-05
6,968545761351992E-05
7,931136185298024E-05
-1,1997885907201306E-05
-0,00010665694989075204
-0,00015919769689703856
-6,5844435227847E-05
-0,00011663423509255169
-3,0149265944390135E-05
0,00017083492468279778
-0,0001233840642458567
0,00012764806581550976
-4,541076740522397E-05
0,00015848996219774072
-0,00013263721521071084
2,5925988887551466E-05
-0,00010502228680417944
6,905682229024109E-05
0,0001532055505695907
0,00015515320700947374
5,109994235697427E-05
-8,26870749915993E-05
8,843610966288575E-05
2,6249676580914248E-05
-5,090440027155513E-05
-3,605360135193115E-05
0,00010221945678590214
-0,000143596003146815
0,0001411142375995689
0,00011807662995568308
-4,608872595737706E-05
-0,0001538055867519229
-8,527344780264876E-05
-0,00015289116534372783
7,64040312901732E-05
-0,00015204371225489952
-5,181653559056762E-05
6,815524961782438E-05
2,659845323044674E-05
7,266285335456224E-05
0,00016353411923974092
9,054132502854084E-05
-0,00010266095723497089
4,687695909827702E-06
7,653663607370872E-06
-7,148960963517019E-05
5,4008149303885744E-05
7,262584001544605E-05
-0,00012906887076060753
-8,997843435110575E-05
-0,00013030162323161422
-0,0001072418950897145
0,00014885071105515802
-0,00012093132799172407
-0,0001442479317255196
-7,930426524285733E-06
-0,00010989066108276453
0,00012003491423568286
-4,321229809988099E-05
-0,00013684780854877183
0,00010630342718048656
-0,00018032454461341322
-4,65679393431515E-05
0,00018946574001838003
0,00011762599501712452
-9,164153472366109E-05
3,1609716313117506E-05
-5,377879493066446E-05
4,416971708294781E-05
-0,00012902686918797013
-8,057418004253209E-05
-8,892904249192223E-05
-1,5567313199700755E-05
0,00016341474961394014
0,00012058552292133279
0,00016013390211265006
8,017076540884062E-06
1,6700641622181376E-05
0,00015266574866953933
0,00010417842105287596
-8,795067409229706E-05
0,00011606887793938558
-0,00010360376690905989
-9,581967757969762E-05
-3,2525105555799315E-05
-3,687478793306522E-05
-9,306182726346335E-05
7,944350800758235E-05
1,1356664094934869E-05
-8,120206817316701E-05
0,0001135459145870362
2,1835014819318024E-05
-9,443776910841933E-05
0,00010871397777974741
-0,0001278114184586253
0,00013635737045139066
0,0001565985948708266
-2,139738447614611E-05
0,0001096677524856006
-0,00010254500668297405
-2,3347501491420387E-05
-9,094799056173408E-06
-2,217862558397146E-05
-2,169606792636711E-06
7,97171528419558E-05
3,743610847114835E-05
-0,0001154996599202563
0,00013354921122923804
-8,872782523764053E-05
5,698433493122549E-05
7,8175714348939E-05
1,4650849342774912E-05
-9,939364591999497E-05
9,947326825454463E-06
7,506144329188905E-05
-0,00010114165510076804
2,8062964225707806E-05
1,6650831761954666E-05
-4,861241264390651E-05
2,452492682794515E-05
0,00010393448786035088
-6,474421011049186E-05
-4,199831489028397E-05
-2,196631035246028E-05
1,2056935591273125E-05
-0,00014856869430290945
-8,358865011385876E-05
0,000151244253694265
5,047009290175125E-06
-6,067705169414792E-05
-0,0001380013099340874
-7,787730419830405E-05
-0,00012647385616172444
-0,00010118128718741058
-9,244003914976926E-05
5,9602484214872716E-05
-3,885867744595509E-05
0,00014696840370137895
4,135927125504099E-05
-5,557887167902477E-05
2,902401475257233E-05
4,191498841570486E-05
0,00017035666069254503
8,041760102600758E-05
-2,30913173241832E-05
-0,0001694012952335918
-9,931549388331831E-05
4,689764182073445E-05
2,2538249081821503E-05
-7,917716912697657E-05
9,148926531155446E-05
7,613683604894054E-06
-4,083134979261244E-05
0,0001741485974555452
6,886894173007086E-06
-5,0397243066628984E-05
0,00015362662543554325
-5,795991979992556E-05
-0,00010956743060385077
-0,00013695195758138865
0,00014311633875879832
8,82851013696689E-05
-0,00018491941030437245
-0,00017838228145223837
1,9613131316320397E-05
9,394722890589256E-05
-0,0001520429981734542
3,713463669877575E-05
-4,3725184100527194E-05
-6,418129312395568E-05
-3,836317575407358E-05
5,4283975697651906E-05
5,0202325338401325E-05
-9,629061932475197E-05
1,5203031589921364E-05
0,00015969647668289156
0,00011887037013327953
-0,0001382259099014763
-0,00011292258056631169
-9,745929575277912E-07
-3,836291672221935E-06
-0,00013442340809428736
-0,00014370455186705315
3,586565264015498E-05
6,368793251417624E-05
0,0001490173882322109
-1,5241188994376034E-05
0,00014626065727910365
3,159420727338251E-06
0,00012285558935860733
9,163082847752615E-05
0,00010948717253697958
0,00015141575965953868
0,00011832985244973416
0,00016063934220298287
3,7083295216750626E-05
0,00013448427825713962
-0,00014462840908322972
4,869453639223255E-05
-0,0001436176493576589
0,00014606447579770416
-0,00013754980091828015
0,00010511624617576913
2,3371105128515316E-05
-0,00011392323820942429
-2,407401027525556E-05
0,00011971694524570814
-0,00018994435540282178
-9,066696811394996E-05
-3,490654718778458E-05
9,359502106301142E-05
1,6819884120500256E-05
0,00017434316643982764
-0,00016375960484336507
1,61684871233934E-05
1,6714624219617711E-06
5,1782999191307635E-05
-0,0002003766077056492
0,00012727339214362344
2,7224453091408067E-05
2,2858199084709273E-05
5,935896756882119E-05
-3,608009318473457E-05
0,00017249968360809442
7,009457570080445E-05
0,00011137824001620517
-6,674656924202705E-05
-0,00015606904495801103
-0,00014547675594988097
0,00011028442230432687
-0,00016004558149945117
-0,00010746036453303744
0,00016483747000314814
-7,50894962362118E-05
-5,874570428219923E-05
-4,338940160413463E-05
6,773461545813655E-05
0,00010502415605906642
-8,049056728281902E-05
3,2304849899197417E-06
0,00010527790168875466
4,2894446691752685E-05
-2,7649197748172077E-05
-5,6311138108404646E-05
6,502585468423168E-05
0,00014416317580081748
-5,151105785434633E-05
5,739969267969704E-06
0,00014193623079425792
-7,543291022048761E-05
-0,0001235608075196886
-4,253686541669305E-05
0,00017503029326220975
-0,00010644796642024982
1,1691887202989001E-05
-3,96804532403496E-05
-0,00013910922954016227
5,204047811775129E-05
0,00017984078093258472
-3,742139854392589E-05
-7,64115079886592E-05
-0,0001228443652438684
0,00012026994269485316
-7,846183352152999E-05
6,189887634750224E-05
-0,00010509667394905899
-0,00015666339366766073
-0,00013239198312305864
0,00011747321712315549
0,00011683017588758052
0,00016265103640812514
-1,7628742152378775E-05
0,00015108849610108725
-0,00012744038738359115
-0,00013026277227811152
0,00010033209078287207
0,00011905148522962423
-5,4390886687789645E-05
-3,052936128313428E-05
-8,922047408297389E-05
0,00011753837335662682
0,00010900581235308704
-0,0001259028514055024
-8,275549697527325E-05
-3,424183695356878E-05
-0,00013560702108828348
0,00012853676325953745
0,00012393195475703938
0,00011424500508772834
4,7672330683171384E-05
3,922174487886281E-05
2,5892613544707575E-05
3,509990026946393E-05
-0,00011616302331320605
-8,875345048079241E-05
-4,5456478433537E-06
0,00013520103599298926
-5,759161983183382E-05
-0,00010290051694662518
6,060501697050827E-05
-0,00012470143457301457
-6,72635060966912E-05
-0,00015023108449692304
0,00014113435448839993
6,344106842586724E-05
-0,00014083148989322403
-5,8430266385350134E-05
-0,0001529195759861625
6,55960636819364E-05
-8,551164259021158E-05
0,00015131086759651003
6,326749055243108E-05
0,00018096984994287065
-0,00011796314777069749
-3,570235360665858E-05
-2,3839326349929387E-05
-0,00010713450215108803
-0,0001452997741947378
0,00010760708476061697
0,00011302650649245466
7,766838261926847E-05
2,8130426700079218E-05
-3,649141138852894E-05
0,00013966744545629162
6,111861063941267E-05
-8,42857395088878E-05
0,00011163379434189386
-3,993241185356585E-05
7,777621460827608E-05
0,00015807411289741222
-0,00011867710075939874
-6,832828701861234E-05
8,237658498091049E-05
0,00011052888726775881
-2,7148261763351834E-05
1,6729164672760608E-05
-1,9371562023800198E-05
2,6822588864118328E-06
-4,218185888988069E-05
5,474810910932066E-05
9,532199938211225E-06
0,00016392278533720726
0,00012985215955784994
3,846974145921718E-06
-9,066464746821366E-05
7,309424952720664E-05
3,472988346526967E-05
-7,302852280689712E-05
-0,00016290985521003068
-0,00015529007339664414
1,8149465730765614E-05
-0,00015718364378850385
6,771238589421526E-05
-8,120248900473783E-05
6,477541199438169E-05
0,0001447498002892315
-0,00012356335670273802
-0,00015664524986254633
0,00015096221896875687
-6,479031508312866E-05
-2,902031461678503E-05
-9,698977865296856E-05
-0,00011522870095644828
7,055861868580526E-07
-0,00017180921633696032
0,00014420281093393224
-7,078036788570243E-05
-0,0001476910300300337
-6,365606031403017E-05
-3,493831151090863E-05
-7,482970268862223E-05
-4,8958508353100935E-05
0,00012323701311955725
2,9645608709023807E-06
-0,00016624509828992156
-0,00013446008181143646
-6,89801508354682E-05
3,435030432114993E-06
0,00010850196857828921
8,428751724202253E-05
7,687131317767046E-05
0,00013991890416110357
-3,1172174170803863E-05
0,00017335760202139548
5,207962313248739E-05
2,1986004138699307E-05
-3,3544186138965165E-05
0,00015215434553906906
7,76503029939502E-05
-0,0001621865188589039
-0,0001389745630767554
-9,476131545926931E-05
-1,4079863725079096E-05
0,00015125383119343367
0,00015287744908665566
-0,00013211001949191812
8,823211349720896E-05
0,0001316442574989385
0,0001274634643554803
-1,8281726813234096E-05
-5,5597111058269084E-05
5,872504274199978E-05
0,00010210767073753365
-0,00010513679112671544
0,00010967857439730086
0,00014986285289836175
8,060454126485342E-05
7,861272935512057E-05
0,0001009303307982917
0,0001339323490530808
3,384426969902758E-05
-1,084500101834507E-05
-0,00011813863112067737
8,248573255353868E-05
-2,6352748860977977E-06
-0,00014734207649158852
0,00011631358783515418
0,0001042983245593639
-0,000104826895261716
0,00016880771004130872
-0,00014151150589289244
1,1085321418556064E-05
6,50895940592367E-05
0,0001430666419620319
0,00016135532320050246
4,0998426223623496E-05
-0,00016484512486235814
1,0778364260160005E-05
-8,48750142424834E-05
-2,9340374157186947E-05
5,255103756026773E-05
-0,00010550764068703869
-7,521706387807253E-05
-0,0001437950548607236
0,00011139217535761011
-0,0001382244024325367
5,174380529332724E-05
-0,0001000069720110011
0,0001057246502984039
-6,314333270752947E-05
3,8942272964130493E-05
0,00019545136623850095
-4,434276011951834E-06
5,617142420976809E-05
-0,00010483450303127079
7,505337505897966E-05
-0,00016602396847863809
2,731367117452165E-05
4,297858327533817E-05
3,9554140901868075E-05
6,806510495994358E-05
-0,0001518995395974471
-3,446075968778305E-05
0,00016037259007742045
-0,00013743926221969046
1,5205155348448709E-05
-4,923177548886937E-05
9,746711510701224E-05
-1,8605996345804603E-05
-0,00012479471923978845
-0,00016262646139757027
-6,0242201235448095E-05
0,0001264961903279012
-0,00010929072282534085
-0,00015669872260596577
-7,742604338121144E-05
7,616518906099617E-05
-3,333339260511633E-05
-5,153569980322776E-06
7,474444691103674E-05
0,00015354139030101556
-0,00017310633801734628
0,00015893369645746103
3,2190315203016284E-05
4,302670139072765E-05
-6,0217213150062585E-05
-1,1893694143058437E-05
1,127350977688846E-05
-0,00014491395993514452
-5,025165734917936E-05
1,2663752334678573E-05
-7,319346018777511E-05
-8,861762874943085E-05
0,0001586871163163562
5,201591469980562E-05
-0,00011876821532390253
0,0001356293057473794
4,497899434151824E-05
5,936587069955362E-05
-1,855993960893969E-05
0,00012462855302617108
-0,00012745833845898116
8,506452480932012E-06
-8,512138307643054E-05
-1,2925980506816914E-05
-5,085902379884284E-06
0,00015317196447141643
6,430354829073195E-05
-9,433205104307499E-05
-1,8860667123489615E-05
-5,986784947965119E-06
-0,00015520321381925153
4,432894284359062E-05
-7,080536883849617E-05
-3,0437593624542426E-05
-0,00015884783716722838
6,755260434529998E-05
0,00015481701890299854
-0,0001092474547953148
-1,5859391380530813E-05
-0,00013297162339625526
-9,03059676561053E-06
1,9508591003982546E-05
-3,136573149685007E-05
-8,340816922944139E-05
-0,00017191030520339167
7,777070364501058E-05
-3,8293578148250825E-05
-0,0001611767269208567
0,0001519337135529677
-0,00012432697473238093
0,00013264314233619773
0,00011569187993061276
-0,00010596810232750556
7,432907737241317E-06
-3,862096725819355E-05
-0,00013862612722022842
-1,0517501108394767E-05
9,728300496548417E-05
9,825025567463482E-06
-0,00011626943143765284
9,040998818357508E-05
0,00013508399845389086
4,3824483368328944E-05
0,0001466337557940645
0,0001352751433792577
-2,7971831220144924E-05
-1,0292805498989038E-05
0,000157703402923372
8,750534765190914E-05
9,116530311572914E-05
1,920338472596499E-05
3,805462194568707E-05
-0,00011463742962405283
-0,00016579730452339717
0,0001566788512370858
-5,960745121278428E-05
0,00011597776615276505
-4,29358449542598E-05
2,9231430842146165E-05
-7,513109012076482E-05
-6,613064433002817E-05
-0,00011048144906906831
2,7769918034642752E-05
-0,00015402698202627324
-2,9299929147854923E-05
6,359621321836326E-05
4,693609121750374E-05
9,653387874481127E-05
9,644013708902988E-05
-0,00011480425107852961
0,00010500261167509521
-9,1372723669826E-05
-5,362297687199525E-06
-7,941767258379355E-05
-6,471969658278017E-05
8,527415110447534E-05
6,768961248707844E-05
-8,123424590012798E-05
-5,313407277295799E-05
0,0001237507778050576
-0,00016298292857657072
0,00016336014538923454
8,385350184639116E-05
-3,3215829905103873E-05
1,6905584977113976E-06
-0,00011489809365025333
0,00010845362213036078
6,281290837133833E-05
7,802941874664827E-05
0,00012089887515538362
-9,747334801306514E-05
-2,91861615678263E-05
5,4581774720836356E-05
7,821543194406397E-05
6,145176759246376E-05
-6,63085538576749E-05
-1,8274784519122874E-05
-4,482381562925481E-05
0,0001677353442529123
-0,0001214235318208617
-9,764173036136123E-06
0,00019450956420379698
4,4099998638586646E-05
-1,2025930809530197E-05
0,0001342797214842579
-8,908228358859096E-05
-3,423055764270679E-06
0,0001640812747823523
9,285048642268149E-05
-0,00016582971413377137
3,421091453612203E-05
-0,00018546279007562695
9,600079575730932E-05
0,00010949912058758295
7,3346789176473245E-06
-7,678148959386774E-05
-0,00010488259495337506
-0,0001380412799765832
0,00016975035004737892
-4,0005622116382085E-05
-8,136132311458493E-05
0,00012944918746088111
-0,00014124679325216646
5,674409553813586E-05
1,1842485024904994E-05
-3,575921539045904E-05
-1,2871990975081079E-05
0,0001073368568370207
0,00016543591330688806
3,895863543997293E-05
0,00012178563762332884
3,085055812904972E-05
0,00013141506972534522
-7,290780591567388E-05
7,474428076297434E-05
-7,501284077302925E-05
-3,9386845021779294E-05
-0,0001473049117076322
-6,711195294565155E-05
0,00017338447091645585
-0,00013345039002719405
0,0001439469696903781
7,347746460800025E-05
-6,73725337193657E-05
-2,7346437263135024E-05
-0,00012839393819197067
-3,738414660808308E-05
0,00012149218307701382
-2,0165172735255462E-05
-7,159079212389832E-05
0,00015295982823176465
-0,00019618498723087207
-0,000109116498682763
-6,256425622661864E-05
5,634287924714017E-05
-0,00013301407761759905
3,149774073055354E-05
8,231142470265345E-06
0,0001574187606216083
-7,261150590893605E-05
0,0001019227103827467
6,920977160458922E-05
6,943629026270305E-05
-0,00012005508336680658
-0,00016820158215906852
5,3005433052570364E-05
-1,1506757334120725E-05
-2,2881979407649024E-05
-0,00012930966835396845
0,0001385298103783382
-9,575279736750598E-05
3,1477511768631234E-05
6,787864511785935E-05
-0,00013429252540722393
0,00015053596613459142
-1,533574435488003E-05
0,00012996661613709788
-7,255392954390037E-05
-5,540671446291314E-05
-0,00017620135860762752
1,0543823754348881E-05
-0,000172928902253638
0,00015187307726586004
-1,7775492949646673E-05
-5,8141306360033063E-05
0,0001300499765590789
3,2727268719994436E-06
-2,6660831162160208E-05
-6,658949491624999E-05
-0,00015568999754752422
-9,182490351490513E-05
0,00021152840748315862
-0,00010412322604723526
-0,00010148567762029216
1,4588201676333734E-05
5,30742106501728E-05
-8,92686748306182E-06
-7,450468810060399E-05
-5,85393589854898E-05
-6,617085538508413E-05
-0,00011484404473437618
-5,8268566581339996E-05
-9,346153291260484E-05
1,7887717823364114E-05
0,00016302011411121312
-2,5120162220449716E-05
-0,0002115409666295698
-0,00014596034917715428
-9,063126346774219E-05
9,280769924792212E-05
6,06999072756805E-05
6,679031139790822E-05
-0,0001142907752034178
7,791918439776593E-05
-2,5841624554955193E-05
8,96584092976889E-05
0,00010716034867507995
-0,00014158921841970186
7,875912545710336E-05
0,0001698943339371503
-7,764032457533381E-05
6,472674375628821E-05
-5,688995686027904E-05
-8,890447892415083E-05
0,00011236418926314721
3,785379187301461E-05
-0,0001094989857498285
4,396987253469824E-06
-0,00013924025355348152
-8,18392582529232E-05
0,00011483111387856273
-9,06699088402933E-06
-4,9240388715486234E-05
-0,0001648944795381812
-0,0001366848785032982
7,20295176783534E-05
7,09007321630433E-05
0,0001412544987768641
-0,0001079177638600539
2,988221888548145E-05
-0,00018096756269751868
-0,00011909566593078115
4,317285929152534E-05
0,000136589743613599
-2,544572951130805E-05
0,00015800890619396574
0,00018833138720890009
2,7240111936451163E-05
4,174526057084396E-05
1,2886483378067272E-05
3,8489780630932254E-05
-0,00018432082512033173
-5,562774322199475E-05
4,735928316382429E-05
0,00012156171701068857
0,00011055847969237165
-8,545079979996241E-05
4,5034515647776664E-05
-6,460441998002898E-05
0,0001406440207352693
2,0201674591848685E-05
-5,2749357481040476E-05
2,896444594756107E-05
-0,0001165435400104065
0,00011767904247696027
4,766333063383487E-05
0,00016759467150663894
0,00010747410622619429
-0,00012551284889599843
0,00012860577281666774
-5,07284457248482E-05
-0,00016309090254379996
-0,00010140050499904449
-5,685034148571962E-05
-0,00017182031231641084
-3,000833277517979E-06
-0,00011806673843797925
5,575886261523395E-05
-2,7503113435459628E-05
8,96080569791973E-05
9,768292819719027E-05
4,440308464304452E-05
-5,29955218435711E-05
-0,00012138247781873065
4,164207617992446E-05
0,00016897380784829913
7,75786253115698E-05
-0,00016662797149921742
-0,00014242174890872336
-0,00010367005381800368
-2,9522804929008117E-05
7,75827442120172E-05
9,650266328444749E-05
8,840646806389539E-05
-0,0001650829275818761
1,5800913786822763E-06
-9,241749692611229E-06
-2,0887604690925938E-05
-0,00014742415480509014
0,00012285275129956803
-9,315577835216856E-05
0,00015087091714795683
-2,6892971683594178E-05
0,00010688970319187018
-3,4825812306833024E-05
0,00013797213827996006
-8,291332428274329E-05
-0,00010460499428224665
0,00013656939879070918
-4,423900904505652E-05
-0,00011745117154926084
-2,6636201286778563E-05
-9,818723623591237E-05
1,3170532513829598E-05
-0,0001307681934710229
-0,00016050633077429162
2,1201977540874445E-05
0,00012115378347532655
-4,8532624187165065E-05
-0,00013894351311881747
-6,907620291286133E-06
-3,897355245948921E-05
-6,0110900710358E-05
5,502610648142947E-05
6,763414213345035E-05
9,94965465602959E-05
-9,856319355082927E-07
2,5108372810101574E-05
-9,884741721094033E-05
-0,00015927009119499856
3,085039636663013E-05
-0,00016994779881509875
-0,0001178711145023186
-0,00014018374173016809
-1,9139396640839626E-05
7,045545817277854E-05
-0,0001549488173163693
0,00011511496466936319
6,665955343992414E-05
-1,659013668696471E-05
0,0001496436021907557
-0,000134980827634709
4,888435178666522E-05
0,00012955412150763922
-0,00012475561331151463
-1,6181743918404593E-05
-5,1971219585950396E-05
-7,292648682813905E-05
3,8492518505845705E-05
0,00018237505440253594
0,00012667711519471152
0,0001360315964493331
0,0002001335985584552
7,015052558358169E-05
-9,948633835410785E-06
6,483824423256682E-05
4,681896719571419E-05
1,753886298096886E-05
-6,299789491780739E-05
5,576706371358077E-05
-2,8283008794189406E-05
0,00016341270597955096
-0,00014436832639306104
-8,837234721388003E-05
-8,491016837830216E-07
0,0001387976133256711
-0,0001668978056575742
8,411146350978448E-05
-8,516090829593374E-05
0,0001558977129339988
9,757870322427838E-05
0,00019120858798369505
3,0638700362635135E-05
0,00010306241533431285
6,904028931161145E-05
3,576541487855371E-05
0,00010305620081309851
-0,00014932617528796654
4,743920877537696E-05
-0,00011425764233524359
1,609533921758068E-05
5,421545213254827E-06
-4,982188459065875E-05
3,396843020949327E-05
3,2334182017089835E-05
-8,265688194559108E-05
-9,171941354397715E-05
-3,71208226030129E-05
-0,0001691491336486776
-0,00014485994392938025
2,837138027845419E-05
0,00014495995568335375
6,427428966919214E-05
7,20613809329629E-06
-8,629868017029768E-05
0,00013687165767968935
6,24829610514754E-05
1,3787526185658498E-05
6,823839724898801E-05
-9,300789827373107E-05
-0,00014142415614059567
1,5255465712137307E-05
-0,0001298424597028071
0,00016460539520206098
9,989624558878861E-05
-9,325665448392337E-05
0,0001755869085100348
-1,611633854418031E-05
3,7793409285052405E-05
0,0001540009744491668
-4,024032475941194E-05
-7,609111702587387E-05
2,4935517362561806E-05
-4,563621347744025E-05
-0,00015885650096139406
1,297959113237371E-05
-0,00016066926789557018
7,556041443328919E-06
5,776856895051516E-05
-3,152811703341366E-05
-0,00010496112623627363
-0,0001063427070542736
0,00014160537394564265
0,00010832495050060978
-0,00014494506362445426
-9,440957791925105E-05
-2,3923522987784733E-05
0,00013403311871612326
-0,00014043427676310589
-0,00014279460510134383
8,650564522386213E-05
-4,66867760601459E-05
1,9282166339582793E-05
-0,00015755281761251186
-0,00012584053350896113
2,2718812284089995E-05
0,0001423074761342118
0,00011848202127285832
0,00013758576619979658
6,0560068280536454E-05
8,847775831780346E-05
1,2049089292913666E-05
2,424592104833573E-05
0,00013948591289530298
-7,258030937168033E-05
0,00010419004360132427
-7,410699002287055E-05
2,0459435600989753E-05
-0,0001277426940199477
0,00012908363966063116
-1,5148902829570889E-05
0,00013932726157545733
9,552916911160997E-05
0,00011763862613487028
-0,00012296049632268418
-0,00013341279552802075
8,421663353277684E-05
-0,00011342848813981001
-3,2618225088236554E-05
3,122018596877304E-05
8,22020111749894E-05
0,0001403719546078974
-0,00011790419832582399
1,4051019137115336E-07
0,00013133254764388338
3,9001090437292185E-05
0,00013102071878429687
0,00016167174764172046
6,000280492231077E-05
-6,66293306526283E-05
0,0001595105926301447
9,195998045071299E-05
1,4613163528566231E-05
-0,00012018211085089415
-4,638922965311271E-05
-2,383441963177967E-05
-1,7069392120760424E-05
-0,00012921720677013
-4,2395976342014285E-05
-0,00011916962458155509
0,00013416745368212803
0,00016975800479327683
-1,2432698777064876E-06
-9,392533473533595E-05
9,842936274671403E-05
-0,0001548674839523444
5,643178385946905E-05
3,320979995894934E-05
-8,800901404584488E-05
-1,6399366003091505E-05
-5,474371313141607E-06
5,0324070021024286E-05
-8,760925417597039E-05
2,6272046253156113E-05
-0,0001694764824018535
6,086149089201843E-05
-3,8552419093105224E-05
0,00012389733062023972
0,00017025017734442226
-8,242300892530454E-05
-1,9477575917516585E-05
-0,00012412296192078725
-1,7599075887862236E-05
0,00016264386713350822
-2,39347312860765E-05
-5,080891563271227E-05
-3,780706173603573E-05
3,453874975180447E-05
8,197591138400985E-05
-7,493097322038985E-05
-5,220547906427405E-05
-1,4330688016451486E-05
0,0001692682114889661
-3,0323747737098256E-05
0,00014771465923187974
-7,258637105292475E-05
-2,0947933138204837E-05
5,765675453399543E-05
5,542694989705986E-05
2,3793411610892625E-05
-0,00015030830501538072
-0,0001172463568489094
3,504548145457922E-05
-0,00011385886634441592
6,5965931330702E-05
9,855931613369683E-05
0,00010804531982426908
-3,265771929940674E-05
5,724230286346454E-06
6,727967336075111E-05
-1,5320039442674986E-05
3,901417545011908E-05
4,404907644152196E-05
-8,950675096793613E-05
-2,4082336800369238E-05
-9,78147601450394E-05
-0,00010701168493346464
6,042204506041281E-05
5,414977343562824E-05
1,4166985458694828E-05
-0,00010254575759354415
0,0001150231609019997
0,00012540051373149076
2,767181638126218E-06
7,078249493369314E-05
-2,571261538242946E-05
2,8582557371844874E-05
7,066245621055227E-05
-0,00016690860494623732
9,285615537925323E-05
0,00010356254200515248
-3,4586662262434004E-05
-0,00013743712807311114
-1,7621447612075778E-05
0,00015370066281295428
-1,5161185481573304E-07
-8,562133142449542E-05
-3,3047424645630634E-05
-7,673711792312995E-05
0,00012756322583605076
6,452148281849775E-05
-8,717070560564862E-05
0,00014160336671134583
-6,884319582907165E-05
-8,933275924978642E-05
-3,8265309046065655E-05
7,7470112295343E-05
-5,6353766573544057E-05
6,17355057403266E-05
-0,00013300140037972278
-9,640228943192206E-06
8,242438345435286E-05
0,00015168960243556247
-3,0383817692920807E-05
1,4340800770706315E-05
-4,2047608744622844E-06
-0,00012469232194357434
-1,4503397786012827E-05
6,568788179975691E-06
3,384833065225873E-05
1,4344614226906882E-05
-9,955921040322672E-05
0,00017541299242324073
-9,311393971941895E-05
0,00014403366937122328
7,980086358074371E-05
0,00011451838493078781
-0,00014248795989787704
-0,00012048199843688083
-4,360687924434241E-05
2,585634518406015E-05
-7,387830097116883E-05
-0,0001544161406172702
1,4601642247788766E-05
-0,00015396303247077343
-5,932717759159815E-05
7,07752829818532E-05
5,926890261768922E-05
-2,211880526593421E-05
-1,655942425777715E-05
0,00016718773775489232
-0,00010235615404112992
0,00016129016694472096
5,327279261747492E-05
-0,00016724448542245583
5,524729180419656E-05
-0,00013796537310574103
0,00014450320525973294
0,00010291357725979347
8,954335292271679E-05
0,00013911283003321785
-7,599050457521806E-05
-7,137167390482617E-05
-0,0001715190090233525
-1,404105509900458E-06
9,795290638973764E-05
-2,5674691579541635E-05
-6,932608972527913E-05
5,579375148936793E-05
0,0001222345363374314
-7,109809565389247E-05
0,0001851440106690435
4,585539449021917E-05
4,567144388832354E-05
1,526396902274845E-05
-9,546916528275867E-05
7,687845732143367E-05
8,978749469073286E-05
4,896666841356926E-05
-0,00012358214917552825
7,044679152276677E-05
-1,6018910493461233E-05
-0,00010258067802334074
2,063100142418974E-05
9,155452146414369E-05
-0,00013241552908859445
-1,1049748840450983E-05
-1,2888323166900024E-05
-0,00011819289387292813
-1,4225693663389913E-05
-0,00013951867668838308
-8,686636212748841E-05
0,0001385298492803657
-1,7104175022950174E-05
8,197084521397923E-05
4,968078025378557E-05
7,495185996793364E-05
-8,254924010236786E-05
-9,67220704073302E-05
9,75962491393286E-05
-2,5203610591163153E-05
9,774536237424933E-05
-1,8006707794277276E-05
-0,0001244353371280781
-4,6020527680664046E-05
0,0001418391806694079
0,00010571025582061436
-7,693633862938157E-05
0,00016575989959073285
6,545295341253441E-05
-0,00016133777261972179
-2,7190491884341E-05
0,00015520790636517525
-6,003604606608224E-05
2,821655001565605E-05
-0,00011898601868780115
4,0708668963439396E-05
3,144685130807773E-05
0,00016029001373739265
7,651558898731928E-06
7,764829867119517E-05
-8,087657494969697E-05
-7,680033459273873E-05
0,00010670357561186842
1,3409228267214863E-05
-2,9839336838725603E-05
-2,9167881511814512E-05
-1,8120474133610878E-05
-0,00014047803747319022
-0,00012594802669506645
-5,88549956169755E-05
4,6701613321220294E-05
-8,825609188032915E-05
-0,00012004032316997606
-0,00011858195277130651
5,318751878568967E-05
-0,00011890523731807917
-0,0001041089445681428
0,00010003249662425094
-4,5066021638294135E-05
3,22049790459392E-05
8,280563549224711E-05
-3,9499151652355816E-05
-2,649722706185217E-05
-0,00015228178641973455
-2,192296182720994E-05
0,000135760914658237
-3,807284466590036E-05
-6,984333767621022E-05
0,0001635402338690791
6,178061541236432E-05
8,767711565590177E-05
5,001126410049624E-05
-0,00016487678980265727
0,00013995283724577525
-6,405531547185282E-06
-1,6116183715048473E-05
2,5505938022375327E-05
8,895714528222554E-05
-0,00012652514069873513
-3,5332912043174E-05
0,00018167642675222866
0,00016292168101890285
-0,00013423451473078634
-0,00011762095896698941
-2,249910087052273E-05
-2,4229625692326954E-05
7,376281922889303E-05
8,185633608738563E-05
-2,0450975195715864E-06
9,10423571295418E-05
-9,054093951320017E-05
0,00015599654707847905
2,6065300006239434E-05
-8,38644084810998E-05
0,00015703335651650046
0,0001656239036524061
0,00011081243194169967
4,347496747461323E-05
-4,356680979850412E-05
-0,0001400201967149168
-9,551426454954502E-05
0,00011235583953852524
3,217032265097613E-05
-7,579587329372198E-05
1,6066676113942E-05
0,0001399666785144476
-3,8036504651448285E-06
8,466339683201991E-05
-0,00012931475899833765
-9,57629209452558E-05
-9,92996575002049E-05
-5,7025335414151406E-05
-5,964802725992953E-05
-7,414607704979336E-05
0,0001440518898633444
6,600610521746707E-05
-3,164522012528372E-05
-0,0001305496546080624
-0,00015557719008369833
-0,00011028791968927234
-4,17349995464569E-05
-0,00018745569207434724
0,00010068914360197096
-6,128142990408639E-06
0,0001053715474811905
4,107193365051765E-05
2,5650913187127133E-05
1,3649872815013851E-05
-5,13273433194E-05
0,000140636000704602
-0,00017392515795063693
0,00014526809427659382
-6,753597841723213E-05
2,9370538826011663E-05
1,7307522095188983E-05
-1,2173776116021677E-05
1,215435915951228E-05
0,00011452910548791715
0,00012234377274418731
-3,0763690559909206E-05
0,000155897104168176
-0,00014148755605502278
-0,00014471741330821563
-0,00010529324237411857
-3,251786814895202E-05
-6,447717689566806E-05
1,467456600648763E-05
7,754846573094378E-05
-6,782344178598676E-06
-0,00014656200420974324
0,00015962665672148476
-0,00014586559467701468
6,041793688216641E-05
-0,00010308864185936964
-8,459494672259908E-05
6,9617486450549885E-06
0,00010125396301203217
-2,663253938167215E-05
0,0001541683763243727
-9,335784428127484E-05
6,01340469673096E-05
0,00010133408530155358
-1,178924804995301E-05
-8,05049492469021E-05
0,00012506229173862014
4,156033223779762E-05
-6,291256433801348E-05
-0,0001528825704768883
0,00016568816414095147
1,1142746138018213E-05
-0,0001616221143141006
-4,277840064104472E-05
3,645445447026631E-05
6,709232502667247E-05
-4,2423807051155346E-05
4,560346984306534E-05
0,0001519842370095784
-0,000139902230779586
6,229516760531605E-05
-8,711039963752301E-05
8,470343048011718E-05
6,620802986855677E-05
-9,872758054157624E-05
9,336997787865918E-05
-4,875534584338521E-05
0,00018152334705500244
-4,943908614696932E-05
-0,00015541036765708263
-3,277628450404359E-05
7,234368988090325E-05
-3,363450263707684E-05
-2,781622377879361E-06
0,00011292165187436562
0,00010886900060228396
-1,1946890515218417E-05
-0,00012216041226945415
7,698954807369543E-05
-5,364325336987673E-05
4,584913866880098E-05
0,00013604133434215161
0,0001942824323924386
-0,0001236635030446194
4,929825094386948E-05
0,00011222140296278663
-0,0001633507556083752
-3,7007017341433675E-05
0,00010027483631440391
-1,7065193973796437E-05
-6,48133615983861E-05
-8,436089530415312E-05
0,0001805708695476557
-3,0496250492484594E-05
-6,933484367712787E-06
-1,7579837483206044E-05
0,00013683168278506277
2,6652702578543932E-05
-0,00010037964196078573
9,519807374118642E-05
5,4826738211488594E-05
0,0001288644723725519
0,00016510688653893036
0,00019763443099328316
0,00010795176699793841
2,8675192264111006E-05
-8,61723850870371E-05
0,0001743288070093319
0,0001536053005942151
-0,00013735188323214638
-1,7998001394605253E-05
0,0001461092229169854
0,00013822004680874242
2,1078624957285934E-05
-8,188966633132909E-05
-5,813836306293256E-05
-4,057178603019955E-05
-6,245654971809536E-06
7,445547696420707E-05
-0,00012246768247470955
0,00017058336446465106
0,0001376524881124396
-0,00015219434841230774
0,000153971959998005
-9,834654581063198E-05
9,127455872231445E-05
-9,68732949930069E-06
-9,205107327247463E-05
-8,692864377665935E-05
-7,194849085069589E-05
0,00010777521613717999
0,00013207232718920165
0,00015063628952920416
3,164677379808754E-05
0,00014406280665455717
0,0001625906156401408
0,0001208858451205084
-6,386750289368411E-05
0,00013765493827714727
-0,00010886275682612226
-0,00015024567078103678
0,00010647701663935492
-0,00010623764580035467
-2,2739536561069217E-05
0,00016894257810032986
0,0001629331123954114
-0,00011962164509522389
-0,00010954229186520406
-0,00010463000257944266
8,051195181011625E-05
7,517063937175854E-05
-4,718955701767051E-05
-0,00012119380889430306
-2,545600666854508E-05
4,794202732047269E-05
0,0001649118904511569
9,791657949432849E-05
8,507384918198907E-05
-0,00012240912540683192
-5,029688843490248E-05
7,523357968751841E-05
0,00016737847673836784
8,520217552947914E-05
1,0233121654404971E-08
-0,00010569312177386015
4,96962537872247E-05
1,4795087812027858E-05
0,00017667231460828257
8,985948442735636E-05
0,00016628496027983392
-0,00016318879564199596
-1,0691296307185422E-05
0,0001080968138535469
-6,516307959215566E-05
3,193744401650783E-05
6,203150878425403E-05
-1,0764143924268346E-06
9,916992069486185E-05
8,55810329216262E-05
0,0001603074051342631
0,00011295237676057621
0,0001631200939249706
5,086886981177489E-05
-2,1041819668461178E-07
8,002726614028403E-05
-0,00010644592160150609
7,998739333819434E-05
6,460394279858738E-06
-5,302227231900779E-07
2,123284025900196E-05
0,00011769600510705826
-9,970574163154381E-05
-0,00012248448543329826
0,00016577766337998013
-0,0001735019628378729
1,713572739393741E-05
0,00013495707746040924
-0,00014312847541549063
0,00017139161239751748
1,5801604447301805E-05
-9,879634918029586E-05
-5,9032201724700244E-05
4,063767422439901E-05
0,00013502614858524597
-1,5397661986034204E-06
8,066356851632056E-05
0,00015741781739807888
-0,0001414434037927134
-0,00016173461783523498
0,00016791051303710386
0,000130281986600121
-0,00010210117146275059
4,432264213700047E-05
-3,842980173548799E-05
-8,931433738683793E-05
3,636099476940393E-05
-7,40071440663561E-05
0,00013949242192841393
0,00011781974125704933
6,352738192339497E-05
-0,00013314923818832873
6,962227424413531E-05
-0,00013822529321101727
-9,584679330906688E-05
-0,00015306790854194868
-0,0001429515874964001
0,0001533560230372787
0,00012705836046735737
1,6729583657502163E-05
-7,611063228124823E-05
8,819242297051418E-05
9,517470390052881E-05
-0,0001319271358192766
4,577709025582643E-05
2,7544151903537487E-05
-0,0001735965696781821
9,510298307874211E-05
-0,00015647147646469643
4,205283029786352E-05
1,339347143937518E-05
-0,00010327811048226168
3,942161788936587E-05
7,272914709571033E-05
0,0001398970689817824
3,379122512483554E-05
-0,00015607077135352756
0,00012188821461923881
0,00010939185784389456
2,5819397076592223E-05
0,00013386408812487925
-0,00010158557925325505
1,4277422925092529E-05
5,367123621068668E-05
0,000150142888610171
-1,6515967751576836E-05
-8,143734820423281E-05
-4,02322397723592E-05
-7,583109412783061E-05
-6,541658456973013E-05
-7,941555299641887E-06
4,1063978869542975E-05
-0,00012092268800586264
0,00018179920904417456
0,00010421276071506895
-0,0001561059944379757
-0,00013916926785461096
-0,0001376044756098223
-9,575942234881264E-05
-9,714499213241708E-05
-3,1136644671796836E-05
8,283688860345436E-05
0,00016888305715874862
4,622564454600049E-05
-3,774425345965815E-05
-0,0001389670195638949
-0,00011719134136799885
0,00013173606733728776
8,930879666292713E-05
-0,00013767098913464813
4,292918004191185E-05
-0,0001173810003043443
1,457825416234791E-05
-4,607703688288968E-05
-4,706604166539801E-05
0,0001055883396599523
0,00016200844149724124
0,0001332892418681741
-8,541324394268298E-05
0,00015302816154601375
5,4036370108143984E-05
0,00014546526859325856
-0,0001844218269438905
-0,00010665382969716427
-3,0349209538404592E-05
-0,0001716160029150023
-9,003054280988205E-05
-1,669719778704798E-05
-1,4330457962795331E-05
2,541297424298839E-05
7,471584622403811E-05
-9,211278217628633E-05
9,490305987938542E-06
-0,0001843252039132048
4,4658112879218415E-05
7,383837814861705E-05
0,00011591176344454113
2,763274306808964E-05
3,73026153844882E-05
-0,00010358245248458006
0,0001282875615509212
0,00017708861310942778
5,1160212926535776E-05
-4,6616221776496767E-05
-1,6819006726360103E-05
9,063865190544877E-05
0,00012960157125707007
0,00010952664367227653
-2,345878612963798E-05
0,00014303695000603955
-4,766311719045443E-05
-0,00017598243166406613
3,521153516867474E-05
-9,471822835456019E-05
-6,209208382019033E-06
-0,0001517091530265485
3,92033421119755E-05
1,157048228022602E-05
-0,00013378044857981943
4,931644533041097E-05
4,647006057168462E-06
0,0001336377865416012
-8,620814323085977E-05
-8,066733382885793E-05
5,9366000550405066E-05
-3,2295992364754066E-05
-2,8693322422086E-06
3,745870756820129E-05
-0,00013607105010808145
5,390225472700253E-05
-8,238155904925742E-05
3,9865386692801625E-05
-0,0001407598239569434
-3,580094039613355E-05
-8,618967648393338E-05
8,246075966605691E-05
-7,322901186504626E-05
6,727871024574153E-05
7,275237367368043E-05
-5,8601921603558276E-05
-1,6709281893940294E-05
-0,00014023259117717835
-0,00017986625231224544
5,536063104578463E-06
0,00015562480949709597
3,8443936720074186E-05
-0,00011582163498663528
-0,00011851754862484219
-8,18544968350704E-05
0,00014103985426022232
-4,765027544129167E-06
-0,00017699503351988405
-0,00014814226244195739
0,0001088895245996427
-7,208322269084556E-05
5,4787106316954835E-05
3,936879907982451E-05
-4,773769444183664E-05
-4,999885799260998E-05
-0,00013033679898591066
-0,0001142540471417709
1,351652843642381E-05
-6,199507951496036E-05
4,2088492616544556E-05
2,344726055759686E-05
4,5214173574762166E-05
-3,0807251212944386E-05
-4,692271693510179E-06
-0,00015433555820020767
-6,405779463737676E-05
4,163562750179613E-05
4,547067074122685E-05
5,511139148794235E-05
-0,00013244906733235535
-5,276627161687991E-05
-0,0001588492332989946
-7,349455113079994E-05
-5,8470909508041845E-05
-5,235799429616494E-05
2,22535203928426E-05
-3,13113646499909E-05
-4,69613986797976E-05
1,901124657065036E-05
0,00011975820332161137
0,00015305711847257884
0,00017449029992253154
-0,00010486338072001517
-0,00015987077566253347
-9,22826070017264E-05
3,6051296482560925E-05
0,00013990393335202835
9,679437594383134E-05
-0,00012033781554356879
0,00012839374431066107
2,943830005719171E-05
0,00015422509562514105
1,7535032527552982E-05
1,388070814106582E-05
5,555971884361269E-05
-8,269229045557447E-05
-0,00010849413164885554
-0,00011326395075793095
1,841378741708092E-06
-0,0001339187956230286
-0,00013037963786316877
4,6865763439441594E-05
0,00016935939492716863
-2,155626588928341E-05
-0,00016512282448872195
-8,594183125476694E-07
-0,00011461236033529563
6,533639713544912E-05
-0,0001006885750560115
7,013967959942829E-05
-7,248308048372598E-05
8,972605203445886E-06
0,00010627172302546616
0,00013346244660608368
-7,620389067848534E-05
0,00011744778725442201
4,7461510196570814E-05
7,299534109509712E-05
2,7781110925375632E-05
0,00013158444935168107
-0,00010532455514867114
0,0001631434303019994
0,00015623391987215672
2,961553755495378E-06
-5,508000008095649E-05
9,32640275915198E-05
-0,0001286043298361214
-2,8959700368970557E-05
1,4864215042444632E-06
-0,00011981713462023444
0,00015576772780158358
-0,00014899045037153065
0,00015080925746639782
0,00011859899059660165
9,429599023202906E-05
0,00016366583468659993
-1,1465044000713256E-05
1,3719201639966912E-05
4,861928202018026E-05
-0,000149415904794266
-1,2777229005398342E-05
-0,00012083649023720411
-8,47741802484458E-05
-1,376545499570481E-05
-4,361638512874572E-05
-7,38641512803023E-05
-3,84004057428258E-05
7,203905834519438E-05
-0,00012848458276271525
9,235639039411159E-05
-9,368983189915998E-05
-6,60602465075814E-05
9,328433394614878E-05
4,59062298511413E-05
0,00014620265220408366
-0,00012314264974741987
2,6294658610705503E-05
-8,650278599704941E-06
8,135152437645078E-05
1,1527972443498822E-05
6,387965849965951E-05
-0,0001284891493139026
1,610835265228621E-05
-4,195785533798438E-05
-0,00011114062201193513
-7,236193949231891E-05
-0,00013226665032063903
0,00016019443076446222
0,0001834215445294426
-0,00014905470880171372
5,23485971824458E-05
-5,0125714831797906E-05
0,0001442103104079883
5,5187202891511445E-05
3,0790995992709546E-05
-6,616189970796746E-05
-6,3181132280638805E-06
0,00015148622488509063
-6,592380984433009E-05
0,0001144902474369314
1,9517072220226398E-05
-8,013860160438225E-05
-2,5866578900862227E-05
-0,0001131298279159747
-1,6418624218775987E-05
-0,00014841934962781737
-0,00015901275227511347
4,1981640586752226E-05
-0,00012666509127487926
6,009941406087314E-05
2,879186631444142E-05
-1,3531698271320529E-05
3,164677208655914E-05
-1,1357307036864342E-05
3,551549430889411E-05
-0,0001508590030561041
-6,204732387519687E-05
-8,407262513527055E-05
0,0001309664046047236
0,00019401459841152926
0,00010691041979324212
-0,00017426889199648348
-4,542302823614603E-05
-9,304886323209676E-05
0,00012739968851140516
7,588501606698463E-05
-5,8793854079134955E-05
-0,00012734474275948856
-0,00014288041693692673
2,0640874173566988E-05
3,933767333305226E-05
-0,0001473675343228195
7,638734407008758E-05
-0,00010263965667551609
-0,00015758419349973243
8,24026943568392E-05
-0,0001370384251578404
-8,689736648148153E-05
0,00014401186680703935
2,7555367401881504E-05
-9,843783874094981E-05
-5,884458466166172E-05
-1,654020783663524E-05
-0,0001649650799039382
-0,00016577845360417727
-7,965062196694442E-05
-0,00016764635978313268
0,00013081756291987616
6,650848552246618E-05
-3,0042322463107423E-05
7,901257022364525E-05
5,680351602491978E-06
0,00015811683534843152
-0,0001675661091532315
-0,00015935952804702145
-3,577222084600844E-05
-0,00016476515948114998
0,00013229076945774516
8,408416326998842E-05
0,00010223185858009804
5,025543254808015E-05
0,0001268416719594138
0,00014930253307437213
4,470395547608035E-05
9,64531949577567E-05
0,0001546625635582537
-7,214791428390845E-05
0,00017013687656347454
5,518948153771866E-05
-9,213697232550166E-05
0,0001960789689280309
-0,00010051548636703372
-0,00012002100936132038
0,00010228726402092401
0,00015132248559775793
6,339990301069444E-05
0,00010473557010368539
-2,4333300881108442E-05
-0,00010240078125624749
-3,331072856253229E-05
0,0001549616200944143
-4,3508755624315E-05
7,980666403833245E-05
0,0001588970488255582
1,4094862713196238E-05
-3,765044023021569E-05
9,227095122051077E-05
0,0001359002935173565
8,764895450460986E-05
8,073815789008193E-05
-6,731863184857609E-06
-0,00010144661192808397
-4,069317623190326E-05
-0,00016103636662824277
-6,267828207194611E-05
1,7516236157442227E-05
0,00014263807410299287
-0,00013774429676560843
-7,947390663267437E-05
-9,486994187947614E-05
-4,8530357124760385E-05
-3,112768318879139E-05
5,0658960607354E-05
1,660880599254209E-06
-2,8547283985576008E-05
4,057074052339909E-05
3,576923782074782E-05
0,00011191994522391435
0,00013969443020627834
4,576112543611726E-05
8,150193253425907E-05
-6,0360441440040485E-05
-0,0001455584392226832
-0,00015288353400619842
3,5329265341036544E-05
-0,0001754583012453424
-0,0001325909308379532
0,000163838197592178
4,937467885745207E-05
-6,764336838439978E-05
0,00012010442121588108
-7,678673012621591E-05
-0,0001558380008948623
4,734242243326003E-05
0,0001377550370672154
0,0001259133552327381
8,794955551045663E-05
-3,826802937927506E-05
-0,00013924188731545558
-0,00014693424174076463
-0,0001400181802556256
-5,9778188770849933E-05
-3,499582602075906E-05
-8,343470984914759E-05
-0,00012410328532717104
-7,616855015470613E-05
-0,0001259420193014923
-0,00011465031060764286
0,0001576714541858899
-2,8690516579700228E-05
0,00014540003314372977
-1,3225877377971802E-05
-3,7471477895035435E-05
0,0001363282320565465
-7,193902743355924E-05
-4,864574963320497E-06
-5,586441584081876E-06
-0,00017185669408931214
-0,000141956250764154
0,00011948550812853168
-0,00015801257694688417
0,00017562298656895918
-4,2361560571404294E-05
0,0001656044353256431
0,00013800384013272057
4,5104348487134597E-05
-1,7898378364722142E-05
-3,319365088689007E-05
0,00016207780716556122
1,4806316795210688E-05
0,00012584635067091046
-9,97861675324243E-05
7,290560707995191E-05
9,682919162758079E-05
0,00014090960103392067
-6,412830107994004E-05
-5,2937322988170495E-05
-0,00011392588575847648
3,234017961779484E-05
6,764234648435111E-05
-0,000143870236218911
0,00010636212528543503
-1,4620074988699782E-05
-2,4281473571088655E-05
-6,1814266944943634E-06
1,985931164513174E-05
-0,00015070199686928316
0,00010398690719090012
-6,597410296058589E-05
3,859003198248577E-05
9,957092065816321E-05
0,0001589805792809967
0,00015598887664812163
-6,41008472318599E-05
-3,445468768696434E-05
-0,00014782262925941105
-0,00016328035161284834
-0,00010018479576587297
0,00018012342298653355
-0,00017405479583500278
-8,993079749436586E-05
0,0001281542951383038
7,690783723204217E-05
5,0136779715402496E-05
-0,00013837700157774167
0,00016778316520041933
1,0024952165587614E-05
-0,00014315960064914518
-0,00016109030718118128
-1,2455195828117914E-05
-3,800959847528937E-05
-0,00014781807954521362
1,5136002514184174E-05
0,0001301274171734801
-0,00012231905075170546
8,276133832640154E-06
-0,0001669458211863031
-6,992304566285627E-05
2,3263699102332252E-05
-0,00013654702622404452
9,681945473347093E-05
0,00011743280394640307
1,1618426087646785E-05
3,351661579819756E-05
-0,00013910767572015533
-7,359259171422065E-05
-9,431384634287621E-05
0,00016597043657968637
-0,00011733082029649747
-3,375638435915965E-05
0,0001300140926682339
-9,902532974241253E-05
-0,00010913249420824246
9,477947854644598E-05
-8,438386805574767E-05
-7,081752542999613E-05
-1,6041401817278155E-05
-8,382053405212711E-05
9,997460858981979E-05
2,9259608408870205E-05
-7,476719309860138E-05
7,47778030208685E-05
6,02276872020987E-05
-0,00011386487406387536
-0,00011882052565577694
-8,531216611385306E-05
-0,00011519591549601497
0,00012348526297516682
1,773311121325917E-05
-7,119766797198822E-05
-0,00012328188868087885
2,110105197568728E-05
2,410440245557904E-05
-9,201051994361805E-05
-5,316288161764682E-05
3,181963999122963E-05
0,00011535135087502843
0,00011751652390057912
-0,00013407255465338244
-8,412660573557356E-05
0,0001582256967869867
-1,4733793050024052E-05
5,4556546995251466E-05
2,895538283594081E-05
2,4508691006086836E-05
-8,384892347093784E-05
0,0001134436500481753
3,696870704536298E-05
9,395847887941339E-05
0,00012262497711095857
0,00016952856532575982
0,00016391774230318138
0,00015350090349824504
2,477122079656369E-06
3,310401259099848E-05
0,0001434310517445228
0,00010477798843706182
-8,757249982792951E-05
7,43684741580419E-05
-4,772068422343816E-05
5,8617545465772625E-05
-0,00015474507444095126
-0,00015142370402821626
1,4981105142070265E-05
4,752635012646807E-05
-0,00016706069589690959
6,16081465493032E-05
2,8696862430307115E-05
9,423232440747085E-05
-9,467442273494249E-06
0,0001319122014537005
0,00013208896426318903
-9,235947118155639E-05
7,902351233690294E-05
4,093010198403559E-05
-3,1128917530944255E-06
-3,257313642082891E-05
-1,6892760341629268E-05
0,00017099124672298514
-0,0001249912978646332
9,370461076594015E-05
-1,5720429108939315E-05
4,708221063048168E-05
-3,066449919467407E-05
0,00014919951449311384
-2,126446424568378E-05
-0,00013772546822946258
-6,761933081800426E-05
-7,209099526011577E-05
3,9810978185764634E-05
3,402533087127083E-05
-5,69820194162159E-06
-3,463379464836945E-05
7,449482377229254E-05
5,9092709097593885E-05
0,00011519371287574313
0,0001183745805080595
8,885940261152178E-05
7,376322336525602E-05
-6,840637460373816E-05
0,00011448278291233844
0,0001272053384436119
-5,6298121907074E-05
-7,31148314426048E-05
-2,1835872467230318E-05
8,777832613527494E-05
-4,432686432528177E-05
0,00012593371775321816
1,1298129525250003E-05
-0,00015122615333265296
7,4334670431579E-05
-9,57813302736895E-05
-1,7316703180611824E-05
-9,209606897917818E-05
0,00010606984813476041
-9,19162027375823E-05
7,230776640523127E-05
-1,737882582306423E-05
-5,459572453322151E-05
-1,8823425970205983E-05
-0,00012671509885085543
-4,6247853360164806E-05
-8,496458993891115E-05
6,384353639422768E-05
-2,403550435522523E-05
-8,486109646744811E-05
-9,503466345511929E-05
0,00013656376986511163
-0,00014895156590647219
-2,3243838529049768E-06
5,425780860466648E-05
-0,00016632616215133203
0,0001434766300288666
0,00010824675769684372
-0,00014283955519399656
2,6055871002829825E-05
7,656928578909503E-05
0,00014270872181743426
9,972586066057861E-05
-6,030114443275082E-05
-0,00016236746595081343
-8,48884017312815E-05
-9,148027662677918E-05
3,4818723860913854E-05
0,00011223208197136495
1,020491452175523E-05
4,3358891754620336E-05
6,334181252906561E-05
-1,0568630551021869E-05
-0,0001472098400134206
-0,00011446907979793965
0,00015005848756791332
0,00014424073696457204
-5,329922545402521E-05
-6,298267086980933E-05
-0,00015213633407860108
8,452837275970285E-05
0,00017173668221785626
0,00016246131843998955
2,0244280304056646E-05
-0,00016779135229315952
-2,6585043780509027E-05
-0,00015412401805418302
0,0001284109675760231
0,00012803871841392933
1,502283158805612E-05
0,0001244891340458037
2,58234221629328E-05
-1,4140654661262168E-05
-5,065442707160122E-05
0,00015208371616460168
5,191807801517729E-05
-5,477305813437573E-05
-9,430677073924055E-05
0,00011125328395752343
4,468481040088582E-05
0,0001693157748909164
1,998788254975785E-05
-0,00012384138524862602
0,00011864428238439523
-5,551642429807507E-06
-0,00013394443030848726
0,0001387904410351615
-4,446803047141238E-05
-7,521991637539138E-05
0,0001064683381634344
5,114332824372769E-05
3,105158112683718E-06
-0,00011083687918222617
0,00011629660883387607
7,188709062736925E-05
0,00014650618140962145
-3,254720207140151E-05
-9,05708988749169E-05
3,059853941365099E-05
-1,0839033350712348E-05
0,00016426826250327893
0,00012772398883922822
-4,159391751392707E-06
0,0001784555730585149
0,00016266748103175676
-4,6924928823054094E-05
-0,00013503389573514597
-9,719690979807963E-05
-7,342288752322274E-05
-3,129818540157374E-06
8,772866728658386E-05
5,594635112557973E-05
2,8300959555875086E-05
8,373605776807308E-05
2,1013061666245932E-05
5,396076412179319E-05
5,690271541742162E-06
-8,096724208089458E-05
-6,958490326841595E-05
-0,00010058956174705865
2,0195146253556817E-05
8,729458131038327E-05
1,7680437631005758E-05
-9,037140362545456E-05
0,0001349086019948782
3,3864020414095666E-05
-0,0001684177706899357
-0,00010247734424464795
-0,0001463267989126328
-0,00011186533283717546
-9,248368605887687E-05
-3,7430391427306284E-05
-0,0001000809720139385
0,00019240974304240917
0,00017770171860019443
-1,8673897042741265E-05
5,3148876927805883E-05
0,00017536659755773622
3,153751437569668E-05
-8,657491010924853E-05
8,347768147523794E-05
0,00010416258427759183
-0,00012937911281648193
6,638129967300797E-06
0,0001348404317422575
2,2621099520387048E-06
-9,277198636878905E-05
2,7787778108000792E-05
-6,068459838462684E-05
0,0001247933432663148
0,00010728022058177718
-0,00010862777096570347
3,032250802152819E-06
4,647012061951811E-06
-0,0001628537321625239
-7,371674285779635E-05
-0,00011030213411071459
1,65635225157725E-05
-2,040485760307256E-05
0,00011859460149977589
-7,705342939834304E-06
8,65792508587639E-05
7,964889086294271E-05
4,006658281465413E-06
8,619132065600396E-05
-2,061488018494944E-05
-5,425015137754085E-05
-0,00013902863497728332
-0,00010895967747428275
0,0001332930208331118
-6,35325049925624E-05
0,00012591602006154583
5,37750983418473E-05
5,699631082758306E-05
2,0495089259937328E-05
0,00012867789472694003
-0,00016133764100598552
0,00010645672991289801
-7,281794503894366E-05
-4,452297169252509E-05
5,934562154080414E-06
0,0001068786750632516
0,00015222781781550608
-5,189644369680014E-05
6,858108570987088E-05
-1,9618851746007167E-05
-6,878528371771248E-05
-5,8741011356977356E-05
-0,0001840803133549737
-0,0001714220554792453
7,866493531515548E-05
0,00011838017644257075
-6,872840486488617E-05
-9,967578225271625E-06
0,00015650728944457685
-0,0001560003054577861
4,410706366100434E-05
-2,5446726150936422E-05
-7,309804162538556E-05
0,00017119986852410867
4,7003743837210634E-05
0,00011134420253597311
0,00015184355142346757
2,9255466702169363E-05
-0,0001693057889413616
8,6667853649528E-05
-8,04283811388872E-05
-4,6575534721370285E-05
-1,4552135704785958E-05
-3,554991572879077E-05
8,47810390750101E-05
2,171104246500941E-05
-0,00015611500251203536
0,00011202392737858044
-0,00013138456607574085
-0,00016969185918924617
-0,00016273250222070197
-0,00015112366555314495
-0,00016832830294436724
2,2586706558631575E-06
-0,00010213587049736944
-5,63514341801625E-05
-0,00012431718978613885
-5,9797881303606295E-05
-0,00010680510253985469
-9,114802372664901E-05
-2,1410728136127625E-05
-0,00010719311170156567
0,00016761805360946514
-7,173654811452641E-05
-5,996642994215453E-05
7,045967015052237E-05
0,00016839169736248302
-0,00016676043167423063
-5,1138227157006954E-05
-0,00014044372662084568
-0,00014815406741437717
-4,129579589202831E-05
1,4828889457108597E-05
0,0001031346780485922
-3,156933725236214E-06
-7,09569757935271E-05
-0,000170613408173233
3,0851269959612126E-05
-0,00010033943633944727
1,742430214063756E-05
8,994912879188722E-05
0,00015767497443155694
1,2588548104602492E-05
6,122390108837332E-05
-0,00013499750509773434
-0,00016350460032996082
-0,00011047806326758149
-3,5879191190585804E-05
8,035619787444856E-05
-7,791209962903364E-05
-0,00016196088334757778
0,0001667445902638466
-0,00015175823808874007
-7,61161609829408E-05
0,00014623434303482117
-0,00012926949982789196
-0,00013400735750321256
0,00011182597823267236
9,536301186115185E-05
-0,00018163768712674028
4,359816240470068E-05
1,3286676522734444E-05
-3,6183621395243294E-05
-0,00010157670429387668
0,00011733344793793719
6,667754385948132E-05
9,346113125531302E-05
-5,375554256511745E-05
0,00012453534447073457
-0,00014785007562700167
-0,00012706492226535393
-1,8197927256149717E-05
-7,802259186789751E-05
9,536235857486571E-05
0,00014673413561023854
5,0709771855953066E-05
-6,11720631693177E-05
6,795193215049548E-05
1,2117953026884161E-05
9,076556970054567E-05
0,00011469270789521556
4,3365382641316E-05
7,05007504051733E-05
-0,00012581490598700035
-0,00013796275655649382
0,00010219571366532403
-0,00014679418486296218
-2,7359462378689587E-06
4,2116498034798306E-05
-0,00010152682724833941
7,487948456057776E-05
1,636256665189451E-05
0,00016454808383202835
-4,938012966603562E-05
-1,691860643079836E-05
0,00013973113480671156
-0,00010142054656132094
-0,00016833676220448832
-8,758250778847647E-05
-5,471912486516039E-05
7,884494724816256E-05
-5,45716614553283E-05
-0,00015721417376248487
-0,00012074773334296653
-5,5427285369548795E-05
6,760108168547768E-05
0,0001510412382727272
6,453842884751453E-05
0,00010035560839139553
1,9398163235399992E-05
-6,739973675611885E-05
6,128347363993702E-05
0,00010156740318971034
-0,00012758008751724854
8,222928364770854E-05
-0,00017897032396173605
0,00013175820177220842
-0,0002020804471752355
5,488359472386252E-05
0,0001338064823298744
1,0427142025564381E-05
9,298575828049462E-05
1,1485376363532212E-06
-3,797376482640246E-06
0,00011292006682735944
-0,00017629129331683149
-7,320566640078952E-05
-5,615494526660808E-05
-0,00011716447570037517
-9,357012708798184E-05
0,00011783456647324929
7,816948692936477E-05
-0,00011319571156097926
-0,00010189975254383928
0,00016449640003792244
0,0001295592837351746
-2,327745754095674E-05
9,997593173690739E-05
-0,0001365994719218936
-6,088082205812102E-06
0,00014027084415772206
2,1352948113151223E-05
-0,00015027962652551375
-1,1297684688481622E-05
1,3486503693125545E-05
0,00011312574494522005
-0,00013818768615215821
-6,743002619071562E-06
1,0395671654415888E-05
-8,049264680059315E-05
-0,00015496852803252898
3,9629572785221146E-05
-8,122183399060876E-05
-0,0001304512957965198
-0,00013515094636282646
-8,950376152666851E-05
0,0001351302386468178
-0,00012957485240388663
2,0640443865265786E-05
2,480579648553625E-05
9,078025159144225E-05
0,00014290082769095205
2,9926016550648636E-05
-0,00014250401599770403
0,00010916394276507523
8,646419067707738E-05
8,146452554699289E-05
-0,00013759680774797482
-6,849831004558705E-07
-8,599179935796906E-05
-0,00016575498282633797
0,00012308106917251766
1,6970259860322385E-06
5,0720472809545546E-05
-0,00011296589761343356
5,3874599190321105E-05
0,0001467750468938492
0,00016117684077739485
-0,00010188853608554126
9,090388498621789E-05
-5,525617116786722E-05
-2,2658111742592242E-05
-0,0001479647940701534
7,52149580970807E-05
-0,0001649395143962706
-5,560598097603723E-06
5,945923259652339E-05
0,00014493282574169208
-1,3741507403722325E-05
1,8658799504958274E-05
4,01979812720706E-05
9,120853769038443E-05
-0,0001647610160710266
-2,7252491892507628E-05
-9,031544535731916E-05
-8,827116561111954E-05
-0,00010410576644305409
-2,1583192232467086E-06
-7,315244236711025E-05
-0,0001347173343384047
0,0001452606565532281
-4,077191495754684E-05
-7,231784819916387E-05
4,174947278659784E-05
0,000149324990353963
-8,511916502105801E-05
8,093070942631671E-06
-0,00013065929943556988
-4,244957402558729E-05
-0,00015384006855359258
-6,900388356836352E-05
-0,00013382982315072968
7,847640803009327E-06
-0,00016152622617724308
-9,615547373613187E-05
-0,00013794323885600848
2,3567188332944153E-05
4,605246332916603E-05
-0,0001400918607770512
-0,0001751916038000412
-0,00012902584275772554
-0,00014051847220109857
-4,995961210918384E-05
0,00015253902548544376
-2,0307630870682047E-05
-4,075529869758429E-06
-0,0001675771735638548
-0,00010635801482314597
-8,973421634839384E-05
-8,783148853621373E-05
0,0001623460674344821
0,00013489025925602093
5,393807906070979E-05
-7,159876750753645E-05
-0,00010632830047886458
4,8948907804224086E-05
-1,28832126277211E-05
9,718352577516938E-05
-4,3731077419448163E-05
7,994276987253648E-05
0,00017197483364764511
0,00014569823862903853
-0,00018606171629684568
-4,33112609098325E-05
9,239769944659162E-06
-7,559259879077512E-05
0,00010424760233140575
0,00016501460078234082
-3,668380408756279E-05
-0,0001681042222973001
-4,029537016788573E-05
0,00015849599676869737
0,00014114553033844543
-0,00010976635774834225
-0,00010591986904989544
-0,000153338213871465
0,00017539722008095987
-8,094232894461155E-05
-8,372505113321221E-05
-0,00016250128433949258
-0,0001347295318690235
-0,00013501413321673685
-0,0001753722054476183
0,00010418976235045422
-5,558281909180877E-05
-2,8843301688283846E-05
-0,0001807139479878857
0,00015131766481630998
-0,00011258958218922507
-6,526456833275056E-05
-4,1987742592272465E-06
0,0001563444119961055
9,729052472519065E-05
0,00014452473158351156
0,00014467892066261646
1,6380442942165357E-06
6,287588467106007E-05
0,0001048733892398739
5,63594104753092E-05
-1,363412366900097E-06
2,5062272763008206E-05
0,00016019540880504417
-7,795482551800184E-05
0,00017091521762351816
1,9221731705254493E-05
0,00011475531829405266
8,460519456181426E-05
0,0001064426519650145
-0,00012708791806177296
0,00013544984294870798
-8,886435340702822E-05
3,470043419891004E-05
-4,605760753290345E-05
-2,2957768352596456E-05
-1,8335313423100844E-05
0,0001173926605093893
8,305218189199058E-05
1,1477011714995566E-05
4,895807903767119E-05
-1,1211543689303554E-05
0,00013985000974842698
-7,710256045416296E-05
-4,321984683319863E-05
-0,00013805374566012662
-0,00015394279657994706
2,3543200159420835E-06
5,419605024709284E-06
-8,873547644451376E-05
6,420974807453765E-05
0,00014103714334421649
0,00014003493961695985
0,00015368704185443879
-3,5035813111396166E-05
0,0001024866294047123
-2,1073136141267903E-05
-0,00017554877615732616
0,00012117551459364796
0,00013646641999058608
-0,00017534717431947022
-6,246489593416962E-05
-6,718700064434245E-05
-0,00010165476480724576
-4,911579659332823E-05
-0,0001361678829908429
0,00017240769588018604
6,008052255320626E-05
-0,00010553605247689082
4,575649163372804E-05
-0,00015778978561006672
0,00014010404164696108
-0,00017245079541750713
8,242485341112314E-05
-1,387026962390095E-05
4,08872109271845E-05
-2,6769287636618017E-06
-2,0110035960857233E-05
0,00011277328285659576
-3,466377953650165E-05
-6,942313554388885E-05
-0,00012275914066848018
9,16383710857744E-05
-6,143689962567696E-05
-8,98431133046248E-06
-5,569386105427793E-05
0,00015410615709930892
-2,7198479279641378E-05
4,1165465100731335E-05
0,00013256748072142024
-2,3697201389763837E-05
6,315077413721592E-05
8,420589324804344E-05
-0,0001338370557277215
-0,00015857838530724175
-5,627366074673745E-06
6,283521491896953E-05
1,9235661250660156E-05
-1,1135902192730036E-06
0,0001497121543793458
1,6048604270592483E-05
7,857619663723014E-05
-0,00015298415905996187
8,484082395318233E-05
-0,00012203045312280789
-9,764868425212391E-05
0,00014895284801206705
6,813333444248322E-05
-9,017295260060704E-05
3,1439716406623215E-05
-7,30438314423122E-05
0,00016387441102407545
-0,0001106919580534361
3,830931928605172E-06
-4,1416207166386576E-05
0,00014485008927708943
-7,71978542329863E-05
0,00012985648176434773
-0,0001556050533493045
-0,00011739523820767892
-6,469775179308604E-06
-0,00015856575787715776
-6,999687127678925E-05
3,07228744699062E-05
-9,934909018574001E-05
9,684867203674494E-05
5,888436833335807E-05
0,00011651531728941823
-6,456514745420322E-06
7,036994113967222E-05
-0,00011681642683065544
-0,00013078133440976288
-0,00014728643866676223
4,0511073492151586E-05
-1,664739405976015E-05
-1,0398179547651636E-05
-1,088145068992158E-05
-0,0001683714572603752
-0,0001224886448075354
8,340803083593657E-05
4,4270275176037496E-05
9,855863987115838E-05
-0,00016092308788817806
0,00013242775128380636
-6,503789958564486E-06
-1,9758401914199678E-05
8,359856717852062E-05
0,0001692301061454729
1,1087202819581153E-05
0,00010812858423607936
0,00011314387675644712
-9,235322479855647E-05
-9,560867315509239E-05
-4,6458803012806194E-05
0,00019473854940473765
-9,681319935238202E-05
-0,000154902519483663
0,00016137794380753078
-0,00012013507640258082
6,884155699390817E-06
-9,43351134563658E-05
-0,00011634732776905653
0,00014644560878960183
0,00016809744763248493
8,676732398620682E-05
-7,864010506630927E-05
-2,330832110774203E-05
6,23421134564355E-05
8,524678296901192E-05
2,361940925172557E-05
6,452801292135282E-05
-0,0001546585833450485
0,00016634296812290133
-0,00012364249430415496
1,2145605269773258E-05
7,500705118815157E-05
-0,00010414279089398684
0,00012919959878834454
7,807048237425158E-05
-0,00016392222391307392
-7,593231381920393E-05
0,00015192946688001875
-2,2711550011015556E-05
0,00010744587301411177
-2,480191044477387E-05
-0,00012345399864058045
6,856271096577125E-05
1,5037401604383157E-05
-0,00015967636283080463
-0,00015487305232217885
5,333796657111595E-05
-0,00010227208459484663
-7,617766184552874E-05
0,00014225858516304704
-0,00013125668100562505
0,00013613876691096383
-2,7710646692838383E-05
-2,6215466240024638E-05
0,00014806167198027704
1,3725631752714322E-05
-9,713961947359129E-05
-1,8758171770215882E-06
-2,1446666765156735E-06
-5,7261928837053643E-05
-0,00010568759041688958
-3,292200142552073E-05
-9,079705648011703E-05
-0,00016226479725701157
-0,00017271500469551458
-6,042099017427729E-05
0,0001114766495462595
9,014835655903054E-05
5,974009941243734E-06
0,00011808556094928464
-4,752085856050632E-05
-5,3139321249998005E-05
1,1299918637763414E-05
0,0001505516961793988
-8,924383708902796E-05
-0,00014275879590915628
-9,502271937458479E-05
6,963177153410323E-05
-1,5987058395838293E-05
0,00010287618283622048
4,2411184476301535E-05
0,00010498101335270313
-1,4464177512278633E-07
-0,00012138154827844398
7,455213974565155E-05
0,00018254335505747075
8,977259916320307E-05
-0,00017251046625277745
-0,00011672538981168653
-0,0001671562032699439
-0,00014247927972966767
-6,611596526252071E-05
0,00013381433409839102
-0,00012386867161002612
-0,00014893942965408865
2,9612954658538386E-05
-6,554333183556069E-05
-0,00011085124523519362
8,053897321415328E-05
0,00016039195087397067
-8,011532657885347E-05
-0,00013807383059969666
-5,021541794899521E-05
8,683984510139515E-05
0,00017716165079626202
2,253024882546729E-06
-9,620587821733993E-05
-0,00010324088739591376
-1,365863878307048E-05
-3,68773864364072E-06
6,632603542330333E-05
0,00015088956834911012
7,886103994590166E-05
-0,00012427893789093206
-0,00011826694417304327
-6,68951941488366E-05
-0,00014018749607341553
5,7983651105651156E-05
0,00016131107937263176
0,00014454603588302245
-0,00018503059654652478
2,0258861633183386E-05
0,00014193665261620414
-0,00015768136334445772
-0,00012423128622387626
0,00010680293565457518
0,00017110315210919024
4,3359180620476505E-05
-0,00011326756424312684
9,28237862250879E-05
-0,0001428402335557245
-0,0001190980243263961
-2,786965279092552E-05
-1,4956823388581149E-05
3,968605345217938E-06
7,999086417377651E-05
-4,2006102913572545E-05
7,275947574090652E-05
-0,00010008054870898762
6,6607818800391E-06
0,00014444822452102735
-0,00012015473684491585
8,254132638627588E-05
-7,723434457746117E-05
-0,00014334665814424874
-0,00016054030092462404
8,374573193737199E-05
-8,339337199750046E-05
0,00012478202614916967
0,00013788724821028653
-0,0001555588352499092
-3,082544470641393E-05
-0,00016291667119580107
9,784612540753342E-05
0,00011490491011176172
7,048178751010905E-05
-3,934850917472473E-05
5,271887024489094E-05
6,837263410194978E-05
6,215350303142447E-05
3,3251659248199776E-05
-8,378382504528957E-05
6,452663656676478E-05
-0,0001523554523602134
-4,665783496828254E-06
1,75760464033041E-05
-0,00012596009920233989
0,0001012778902057876
2,2187284605948295E-05
0,00015054767278623873
0,00015087665945239903
-6,480879017646969E-05
1,0679211556404267E-05
8,209869818788756E-05
-9,78168266893408E-05
9,296297420037251E-05
-0,00017054751106612413
0,00011195109975906074
-0,00015319498184844583
4,331084894235319E-05
0,00010601344619257485
0,00015131349201394327
0,00015392839477737467
-0,00011044311084645934
-0,00016903004381637826
3,7118394019665866E-05
8,033101656883601E-05
1,0462170230370787E-05
-6,113057782932195E-05
-1,0129763278382609E-05
-4,92970764371892E-05
-7,34425786243782E-05
9,314105152412441E-05
-9,739780884016917E-05
0,00011656600338344941
8,078756976548503E-05
-0,00017240731950052152
0,0001394965311439395
-0,00014745486615806784
6,0255313359084013E-05
8,365704299069704E-05
-0,00013417516250083052
1,709645617917076E-05
-0,00010172255211374231
-4,15897347380524E-05
-1,7443184977865818E-05
4,856234024902284E-05
7,312570738985378E-05
-3,903479017702056E-05
0,00011166261523202875
-2,9787000795419467E-05
-0,00013727881763888418
-7,132447894876086E-05
4,82765517841673E-05
-3,195217898256596E-05
3,0960316939602216E-05
0,00011228118301486747
0,00011508366704907969
-2,257487380900329E-05
-1,626990188880496E-05
-0,00011034088367189071
-0,00012740353043203494
-0,00010131399557931183
-3,49108853022822E-05
-6,824734776895996E-05
0,00010520887971437045
-7,738830593132361E-05
-0,00011634835056198687
6,688366774849834E-05
-0,00011212147200432956
5,672024030334728E-05
0,0001016328026377737
-7,133759001605913E-05
0,0001616230788156051
0,00012057614784063624
-0,00012666153361668887
-0,0001808611753059569
-9,912016978712033E-05
-8,117537427398153E-05
3,814959295082814E-05
-4,996739401372624E-05
-6,96568943061937E-07
5,480098794073234E-05
-0,00015297085540639434
8,486784484968492E-05
5,039693386111021E-05
-0,00010453459062536617
-0,00013453099106030256
-0,00013455316474402792
-2,6968353678209237E-05
-2,7161069682404662E-05
1,736300186561024E-05
0,00011537469091266005
7,439928393223767E-05
-0,00014268152566961642
7,4892496744908E-05
0,00011472753739296676
-5,73805495615295E-05
6,946525713301068E-05
-0,0001332097258067736
0,00013005840637351476
3,4872510993824925E-05
-0,00010132285550586028
-2,6780419832298132E-05
0,00011643723951381043
-0,00016443339690849944
0,0001160566417060195
0,0001163781579157118
-0,00010864219167590117
0,00014404582012502232
5,885076685286102E-05
-6,682206919791815E-05
4,267248982640739E-05
0,00015599697340231222
-0,00016278032334079173
8,747326283211162E-05
-9,742762429756739E-05
4,515375072576288E-06
7,571528014598596E-05
-0,0001532474471676629
1,6261771793873805E-05
6,816795730901246E-05
-0,0001198052560684463
-3,0705926292046956E-05
0,00014529226124247073
6,869563234595826E-05
0,0001707664792544174
6,0645757862585425E-05
-0,00017094038939075986
3,765578463710126E-05
-4,6820884742657E-05
2,0797176823230904E-05
7,570989939030486E-05
0,0001623221530398494
-5,320034547447624E-06
1,4255544309210619E-05
-0,00015325599281704975
-6,126530197787908E-05
0,00012281684535842723
-0,00016054040518722262
-8,751140980095007E-05
0,00010313819081848443
8,023185584338914E-05
-6,79469763064275E-05
-3,9368885004336884E-05
8,583144741891401E-05
4,424220584037718E-05
-0,00016325917180874121
0,00016559459058432575
-2,3499135384088495E-05
8,563714350818207E-05
-0,00015630855541392638
1,3577381875685805E-05
4,09240863195793E-05
-1,9638381684283294E-05
9,73304362585129E-05
-0,00014141187034130822
-0,00011193896907811017
5,2875302607098116E-05
0,00013042813914107082
6,965563569773456E-05
7,010757816548304E-05
-0,00015941542452074827
0,00010584438333569646
0,0001446461982905604
0,00015869826374294402
-9,983960158888808E-05
-0,00012486398770683227
0,00017135044121993325
-6,1143088303517E-05
-0,00014315970680267866
-0,00016325365314913298
7,331718619069364E-05
-7,499844907894732E-05
0,00018477596069672368
-8,891693278993016E-05
0,0001175866159164427
6,112308790452797E-05
-9,495440022715566E-05
3,3497222127546745E-05
-7,37903011744871E-05
-0,00012922371008963716
-3,155537091538528E-05
-0,00010014297167466588
-0,00010702674249438512
0,0001884988732348694
-5,9211941778719056E-05
0,00012361589610546909
0,0001263610819261906
-5,7211913826871024E-05
-9,511887542316936E-06
3,486628990100001E-05
-9,945536528160034E-05
-9,632513898935092E-05
-8,856391323231415E-05
-9,090756002036934E-05
-0,0001012812091117679
-8,72198604558318E-05
-0,00015644434053889875
-4,599568382050813E-05
5,964967993499012E-05
0,00015372801269266786
0,0001377940137497582
-4,9651443380396474E-05
-8,629857437834584E-05
0,00011658186524888263
0,00016831561509909472
0,0001675024933689342
0,00011727387083190866
-5,712170007733471E-05
-0,00012981900628240346
2,7394245653306323E-05
3,090138863130802E-05
-0,00015420003089295864
1,4016767243620068E-05
-4,207011029207888E-05
0,00014781557682775232
-6,571690943238902E-05
5,7455981924997134E-05
9,7240815646728E-05
-4,953079988922443E-05
0,00013107673536289183
0,00011894253822171515
0,00012467343329878238
-0,00010708303176605095
6,386235306989571E-05
-3,7525729998579994E-05
1,5688796532906432E-05
0,00013184509814822534
0,0001639719527237297
0,0001370868757840451
-4,1405553033645884E-05
0,00010207557560542057
0,00012090384123857689
2,018992302702862E-06
7,699704238414579E-05
-9,036947864309653E-05
9,774453688635362E-05
-2,2168681653972754E-05
7,784796647715359E-05
-9,679558518611774E-05
5,986519219341225E-05
-0,00015774308253796017
-4,658726780279109E-05
7,312267852262778E-05
0,0001700988281024822
1,3713678816830975E-05
-0,00012361153390044697
3,2293253935769355E-05
-9,001963823420535E-05
0,00011170771939212982
-8,321754824528288E-05
8,565794806163489E-05
-0,00014950803462319902
-0,0001176703474622593
0,00015264735274673775
-9,332934787710436E-05
-4,9326989456420025E-05
-0,00012229142917209132
-9,261806891362341E-05
9,856341859303593E-06
4,566210149919412E-05
-0,00015449962650206848
-6,990465241612732E-05
0,00016257481205012185
0,00011575438236637496
-8,890047835991802E-05
-0,00013599265327751212
8,091240340970365E-05
-0,00011622617225996033
6,527770937832448E-05
1,1253099597250603E-05
1,0083759412876145E-05
-3,496200807247257E-05
0,00011391032318825129
0,00018624719854591436
0,00012352461470315995
-0,00010180210770104395
-8,824268777419015E-05
9,031202714447276E-05
-7,541177401255075E-05
-0,00016149686699908146
2,9990132340597674E-05
9,019192567937193E-05
8,160993378774395E-06
2,9386755510466274E-05
-1,5984681145845342E-05
-7,112910903272744E-05
-1,5102441469135535E-05
-7,511397435856272E-05
0,00012234915798828844
6,77364978030178E-05
-7,993271106070876E-06
-9,800388310896244E-05
-6,295022717924571E-05
0,00020822528968575667
0,00013025777354722782
-0,00010191940010697529
4,982501656311688E-05
0,00014897726389740822
5,843633729161661E-05
-0,00010746059860636205
0,00011688148491197201
3,468965482000656E-05
0,00014028128728734647
0,0001248940449696544
7,87854701614762E-05
-0,00012350430093608112
0,0001638475414050995
-0,0001489679233685908
-9,224782079523393E-05
-0,0001443342654956465
-8,697562455082448E-05
0,0001586780796324438
-0,0001598286413434189
0,0001151371040250734
-4,41758125158966E-05
0,00013927006082001904
-0,00014971988704831467
2,333532442572863E-05
1,307190173778291E-05
9,187468127280363E-05
-5,3173562749464386E-05
5,587100823464395E-05
7,7505034881963E-05
0,00013716479592823017
-0,0001582284426817571
2,3257229932899104E-05
6,149754834586612E-05
-8,682848150866465E-05
2,2000972440106412E-05
-4,458058502367971E-05
7,275123073850063E-05
-1,5725352630787386E-05
6,662350620733503E-05
5,741509294300119E-05
-0,0001056263358012744
-2,0310228771384435E-05
5,635734140934447E-05
0,0001404722771243705
7,447820083886831E-05
0,00014085599165840473
9,898316564856498E-05
-0,00012854911279709804
-0,00016777844451509904
0,00013411841179244015
1,9125814512285992E-06
5,330272658147738E-05
3,467449460624536E-05
0,00012493044884687618
-4,3408447457379067E-05
-1,3949975077318767E-05
-4,444821269332689E-05
0,0001556752465273958
0,0001833689679725299
0,00010387149684356791
2,225775842076985E-05
0,00011871163258445889
-6,354580297589144E-05
9,244481946930647E-05
-5,5789400337700576E-05
0,00016951030142724202
-1,454166268272373E-05
-9,935305215500377E-05
0,00012609368478646327
7,176191252673983E-05
0,00013694801738153644
7,67278912784704E-05
-0,00012347408464601043
-3,146770909606198E-06
-0,0001393471420863835
-1,978448619147578E-05
-2,1870038692602706E-05
0,00010170410807579162
-5,612950145182951E-05
-0,00014250396561137354
-5,973427733886561E-05
8,87700991788555E-05
0,0001387177839863547
-0,00010543073934298309
5,999441333216904E-05
4,855140031699689E-05
8,8499662844037E-05
6,464848918971091E-06
-0,00010583085586228891
0,00010384277736864976
-3,703336288103233E-06
-3,953754579597197E-05
-4,22219680358903E-06
-0,0001292981334610581
-9,77387276829381E-06
-2,1582646042895193E-05
6,105373388459487E-05
-0,00015510856980700713
0,0001809036494905445
-0,00013086546363570375
0,00015448382041930909
0,00010529362543923748
0,0001445747640064747
4,196224935101725E-05
2,2920894801418867E-05
9,586857862882832E-05
-0,00014839665140603907
-0,0001463420390069938
-1,3682766456353975E-05
-1,5431679217614063E-05
6,501651753720344E-05
-0,0001542938962100585
-7,619740195044298E-05
0,00015070280332727605
-0,00012133855263721092
0,00014285125240611708
-1,712494063347539E-05
0,0001417400325581084
2,2639596352977682E-05
0,00012069633669425631
-4,7029676900153306E-05
-1,344544828964038E-05
0,00013387928954659647
7,819716846749307E-05
3,366806771431436E-05
1,82822673270353E-05
1,7217123171679492E-05
-4,905107742905154E-05
0,00014879497422992227
-3,280787499843887E-06
0,0001202556956973992
3,837727596435274E-05
-7,40042987775602E-05
0,00010454998982761857
-5,6899915467968954E-05
-7,480362127019692E-05
-8,869495685160361E-05
-5,490060182443224E-05
-0,00017671863821491692
3,4014424132388454E-05
-2,2392604954484126E-05
-7,678700822057805E-05
-0,00011035738844266658
6,744750670054925E-06
-1,9509875032564384E-05
-0,00013556898631466942
-0,00016974965102523266
-4,342401126406528E-05
0,00014896860421408922
4,684987279958532E-05
-8,464206326542393E-05
1,532854624330135E-05
-7,518873028180021E-05
2,3280069854111052E-05
1,0629605270577578E-05
4,7941183067445494E-05
0,00010334078307874932
-0,00015011679380369373
-0,0001767125871126094
-0,00010706699565419687
-0,00014298060115016965
0,0001059411069055413
5,32478752525482E-05
0,0001359586092295288
2,6522383221808E-05
-3,368299714570572E-05
2,5308763635047756E-05
4,805689258110242E-05
-6,754197124094414E-05
-0,00016763309536913494
2,3363120169561096E-05
0,00013781113115107072
0,00015441645795322484
0,0001347619352319039
0,00014871931594312194
0,00011027325970745051
0,0001326587997398642
